/*
 * Copyright (c) 2025 EdgeImpulse Inc.
 *
 * Generated by Edge Impulse and licensed under the applicable Edge Impulse
 * Terms of Service. Community and Professional Terms of Service
 * (https://edgeimpulse.com/legal/terms-of-service) or Enterprise Terms of
 * Service (https://edgeimpulse.com/legal/enterprise-terms-of-service),
 * according to your product plan subscription (the “License”).
 *
 * This software, documentation and other associated files (collectively referred
 * to as the “Software”) is a single SDK variation generated by the Edge Impulse
 * platform and requires an active paid Edge Impulse subscription to use this
 * Software for any purpose.
 *
 * You may NOT use this Software unless you have an active Edge Impulse subscription
 * that meets the eligibility requirements for the applicable License, subject to
 * your full and continued compliance with the terms and conditions of the License,
 * including without limitation any usage restrictions under the applicable License.
 *
 * If you do not have an active Edge Impulse product plan subscription, or if use
 * of this Software exceeds the usage limitations of your Edge Impulse product plan
 * subscription, you are not permitted to use this Software and must immediately
 * delete and erase all copies of this Software within your control or possession.
 * Edge Impulse reserves all rights and remedies available to enforce its rights.
 *
 * Unless required by applicable law or agreed to in writing, the Software is
 * distributed on an "AS IS" BASIS, WITHOUT WARRANTIES OR CONDITIONS OF ANY KIND,
 * either express or implied. See the License for the specific language governing
 * permissions, disclaimers and limitations under the License.
 */
// Generated on: 25.12.2025 15:27:09

#include <stdio.h>
#include <stdlib.h>
#include "edge-impulse-sdk/tensorflow/lite/c/builtin_op_data.h"
#include "edge-impulse-sdk/tensorflow/lite/c/common.h"
#include "edge-impulse-sdk/tensorflow/lite/micro/micro_mutable_op_resolver.h"
#include "edge-impulse-sdk/porting/ei_classifier_porting.h"

#if EI_CLASSIFIER_PRINT_STATE
#if defined(__cplusplus) && EI_C_LINKAGE == 1
extern "C" {
    extern void ei_printf(const char *format, ...);
}
#else
extern void ei_printf(const char *format, ...);
#endif
#endif

#define STRINGIZE(x) #x
#define STRINGIZE_VALUE_OF(x) STRINGIZE(x)

#if defined (__GNUC__)  /* GNU compiler */
#define ALIGN(X) __attribute__((aligned(X)))
#define DEFINE_SECTION(x) __attribute__((section(x)))
#elif defined (_MSC_VER)
#define ALIGN(X) __declspec(align(X))
#elif defined (__TASKING__) /* TASKING Compiler */
#define ALIGN(X) __align(X)
#define DEFINE_SECTION(x) __attribute__((section(x)))
#elif defined (__ARMCC_VERSION) /* Arm Compiler */
#define ALIGN(X) __ALIGNED(x)
#define DEFINE_SECTION(x) __attribute__((section(x)))
#elif defined (__ICCARM__) /* IAR Compiler */
#define ALIGN(x) __attribute__((aligned(x)))
#define DEFINE_SECTION(x) __attribute__((section(x)))
#elif defined (__clang__) /* LLVM/Clang Compiler */
#define ALIGN(X) __ALIGNED(x)
#define DEFINE_SECTION(x) __attribute__((section(x)))
#endif

#if defined(EI_MODEL_SECTION) && (defined(__GNUC__) || defined(__clang__))
#define MODEL_SECTION(X) __attribute__((section(STRINGIZE_VALUE_OF(X))))
#else
#define MODEL_SECTION(X)
#endif

#ifndef EI_MAX_SCRATCH_BUFFER_COUNT
#ifndef CONFIG_IDF_TARGET_ESP32S3
#define EI_MAX_SCRATCH_BUFFER_COUNT 14
#else
#define EI_MAX_SCRATCH_BUFFER_COUNT 28
#endif // CONFIG_IDF_TARGET_ESP32S3
#endif // EI_MAX_SCRATCH_BUFFER_COUNT

#ifndef EI_MAX_OVERFLOW_BUFFER_COUNT
#define EI_MAX_OVERFLOW_BUFFER_COUNT 10
#endif // EI_MAX_OVERFLOW_BUFFER_COUNT

using namespace tflite;
using namespace tflite::ops;
using namespace tflite::ops::micro;

namespace {

#if defined(EI_CLASSIFIER_ALLOCATION_STATIC_HIMAX) || defined(EI_CLASSIFIER_ALLOCATION_STATIC_HIMAX_GNU)
constexpr int kTensorArenaSize = 42976;
#else
constexpr int kTensorArenaSize = 41952;
#endif

#if defined(EI_CLASSIFIER_ALLOCATION_STATIC)
#if defined (EI_TENSOR_ARENA_LOCATION)
uint8_t tensor_arena[kTensorArenaSize] ALIGN(16) DEFINE_SECTION(STRINGIZE_VALUE_OF(EI_TENSOR_ARENA_LOCATION));
#else
uint8_t tensor_arena[kTensorArenaSize] ALIGN(16);
#endif
#elif defined(EI_CLASSIFIER_ALLOCATION_STATIC_HIMAX)
#pragma Bss(".tensor_arena")
uint8_t tensor_arena[kTensorArenaSize] ALIGN(16);
#pragma Bss()
#elif defined(EI_CLASSIFIER_ALLOCATION_STATIC_HIMAX_GNU)
uint8_t tensor_arena[kTensorArenaSize] ALIGN(16) __attribute__((section(".tensor_arena")));
#else
#define EI_CLASSIFIER_ALLOCATION_HEAP 1
uint8_t* tensor_arena = NULL;
#endif

static uint8_t* tensor_boundary;
static uint8_t* current_location;

template <int SZ, class T> struct TfArray {
  int sz; T elem[SZ];
};

enum used_operators_e {
  OP_CONV_2D, OP_DEPTHWISE_CONV_2D, OP_PAD, OP_ADD, OP_SOFTMAX,  OP_LAST
};

struct TensorInfo_t { // subset of TfLiteTensor used for initialization from constant memory
  TfLiteAllocationType allocation_type;
  TfLiteType type;
  void* data;
  TfLiteIntArray* dims;
  size_t bytes;
  TfLiteQuantization quantization;
};

typedef struct {
  TfLiteTensor tensor;
  int16_t index;
} TfLiteTensorWithIndex;

typedef struct {
  TfLiteEvalTensor tensor;
  int16_t index;
} TfLiteEvalTensorWithIndex;

TfLiteContext ctx{};
static const int MAX_TFL_TENSOR_COUNT = 4;
static TfLiteTensorWithIndex tflTensors[MAX_TFL_TENSOR_COUNT];
static const int MAX_TFL_EVAL_COUNT = 4;
static TfLiteEvalTensorWithIndex tflEvalTensors[MAX_TFL_EVAL_COUNT];
TfLiteRegistration registrations[OP_LAST];

namespace g0 {
const TfArray<4, int> tensor_dimension0 = { 4, { 1,32,32,3 } };
const TfArray<1, float> quant0_scale = { 1, { 0.0039215688593685627, } };
const TfArray<1, int> quant0_zero = { 1, { -128 } };
const TfLiteAffineQuantization quant0 = { (TfLiteFloatArray*)&quant0_scale, (TfLiteIntArray*)&quant0_zero, 0 };
const MODEL_SECTION(EI_MODEL_SECTION) ALIGN(16) int32_t tensor_data1[4*2] = { 
  0, 0, 
  0, 1, 
  0, 1, 
  0, 0, 
};
const TfArray<2, int> tensor_dimension1 = { 2, { 4,2 } };
const MODEL_SECTION(EI_MODEL_SECTION) ALIGN(8) int32_t tensor_data2[3] = { 13527, -16664, -14938, };
const TfArray<1, int> tensor_dimension2 = { 1, { 3 } };
const TfArray<3, float> quant2_scale = { 3, { 0.00019992054149042815, 0.00021079611906316131, 0.00022252355120144784, } };
const TfArray<3, int> quant2_zero = { 3, { 0,0,0 } };
const TfLiteAffineQuantization quant2 = { (TfLiteFloatArray*)&quant2_scale, (TfLiteIntArray*)&quant2_zero, 0 };
const MODEL_SECTION(EI_MODEL_SECTION) ALIGN(16) int8_t tensor_data3[3*1*1*32] = { 
  /* [0][0][][] */ 96,78,127,-101,-52,4,-24,24,-18,59,30,-31,-45,-99,97,18,-72,78,103,124,-35,-18,58,-93,-118,115,-86,10,99,17,-23,2, 
  /* [1][0][][] */ 57,-45,-68,20,-11,127,-14,-6,121,-65,-3,-84,-63,105,33,-50,92,-44,-26,-94,-112,14,106,63,18,10,3,-25,-83,-51,-3,-34, 
  /* [2][0][][] */ -35,74,-74,73,72,-39,-27,109,87,22,118,-20,-92,-82,77,112,-77,-49,-10,-106,69,107,-49,-94,81,-67,-16,-127,1,-75,81,-41, 
};
const TfArray<4, int> tensor_dimension3 = { 4, { 3,1,1,32 } };
const TfArray<3, float> quant3_scale = { 3, { 0.0031293302308768034, 0.0032995643559843302, 0.0034831322263926268, } };
const TfLiteAffineQuantization quant3 = { (TfLiteFloatArray*)&quant3_scale, (TfLiteIntArray*)&g0::quant2_zero, 0 };
const MODEL_SECTION(EI_MODEL_SECTION) ALIGN(16) int32_t tensor_data4[32] = { 166, 232, -156, 173, -529, 240, -289, 183, 220, 1040, 175, 329, -296, 87, -410, 143, 40, -319, 1164, -251, -105, 28, -327, -68, -281, 900, -198, 1017, 777, -183, -210, 405, };
const TfArray<1, int> tensor_dimension4 = { 1, { 32 } };
const TfArray<32, float> quant4_scale = { 32, { 4.3124615331180394e-05, 4.1010025597643107e-05, 4.4353546400088817e-05, 4.4352033000905067e-05, 4.2065577872563154e-05, 4.098614226677455e-05, 4.1490438889013603e-05, 4.1737024730537087e-05, 4.2406634747749195e-05, 4.8782902013044804e-05, 4.2402898543514311e-05, 4.9379676056560129e-05, 4.1779760067583993e-05, 4.2312152800150216e-05, 4.2506100726313889e-05, 4.1276482079410926e-05, 4.1755702113732696e-05, 4.2183582991128787e-05, 4.8603393224766478e-05, 4.1536091885063797e-05, 3.8442442019004375e-05, 4.8420191887998953e-05, 4.33004715887364e-05, 4.5511395001085475e-05, 4.1303203033749014e-05, 4.6424331230809912e-05, 4.3958734750049189e-05, 4.5202505134511739e-05, 4.2913216020679101e-05, 4.0444316255161539e-05, 4.0562466892879456e-05, 5.0987029680982232e-05, } };
const TfArray<32, int> quant4_zero = { 32, { 0,0,0,0,0,0,0,0,0,0,0,0,0,0,0,0,0,0,0,0,0,0,0,0,0,0,0,0,0,0,0,0 } };
const TfLiteAffineQuantization quant4 = { (TfLiteFloatArray*)&quant4_scale, (TfLiteIntArray*)&quant4_zero, 0 };
const MODEL_SECTION(EI_MODEL_SECTION) ALIGN(16) int8_t tensor_data5[32*1*1*96] = { 
  /* [0][0][][] */ -29,-53,106,4,103,-20,-86,-99,57,-107,-104,1,59,11,-36,57,-54,-28,-52,-50,-67,-101,7,110,-110,14,80,-48,111,-7,-17,-87,83,-61,-90,56,-108,-75,-93,32,79,-80,-95,105,53,-103,115,-15,20,-55,-35,100,-74,-53,-88,109,17,65,127,-111,-73,84,-47,52,-10,18,72,95,39,98,90,-110,107,-113,39,86,-108,16,-58,19,54,26,87,0,-58,-38,-83,103,29,117,-23,-119,5,63,21,23, 
  /* [1][0][][] */ -67,43,-69,6,-59,91,45,27,87,-105,-105,113,72,-22,31,64,120,-39,29,127,-45,0,43,34,36,20,-39,118,16,9,106,-68,57,114,-5,40,60,68,9,-63,-61,11,-18,-97,-36,41,-32,-51,-22,-84,122,66,16,90,-78,-48,35,106,56,92,-57,123,-66,-81,-57,41,86,49,118,35,24,16,-116,90,-45,55,92,-43,-38,81,-80,89,-49,-122,34,127,-69,-66,88,89,106,16,93,102,33,3, 
  /* [2][0][][] */ 39,49,-61,100,-29,-65,80,108,-98,86,-40,109,81,-20,75,-110,-60,-32,55,44,-100,-18,105,15,-15,71,94,9,-72,69,72,83,-61,-24,-96,-87,-86,85,127,-31,-119,-80,11,-10,-86,107,-31,-77,95,30,79,-93,-45,56,14,10,-73,98,-68,4,-24,65,-42,60,87,38,44,85,-88,66,4,-77,27,-76,30,25,-60,-26,0,26,30,-98,-17,-48,-4,-100,-14,-38,81,103,-21,-3,-49,-86,-52,-58, 
  /* [3][0][][] */ 82,-17,36,-35,-46,67,-99,19,49,15,71,3,102,105,77,2,111,107,-67,30,125,-78,-59,-101,-41,-99,-68,106,55,-79,88,21,-57,-25,2,-35,-84,-14,21,56,-14,-80,-94,1,69,35,-37,-78,65,-70,55,15,95,38,98,-90,-98,-127,-106,-50,-79,31,-18,88,68,-25,-53,-31,-21,-71,16,112,33,-104,69,-47,46,100,102,-77,-77,-107,50,101,35,55,-57,-104,-68,53,1,-89,106,-81,-78,42, 
  /* [4][0][][] */ 42,91,-11,48,-38,-24,26,3,52,78,-18,39,31,-40,-24,-80,-30,-13,-76,9,111,-100,77,21,-32,-7,60,-65,-55,37,-81,-59,57,106,18,-117,-63,-17,-127,44,-61,-72,-83,-103,22,98,26,44,9,-46,-16,-80,-94,37,-97,12,34,-99,21,9,10,-89,-36,-72,-54,48,-5,-40,17,-106,-101,-85,-62,8,95,45,68,-33,-14,-72,-2,-53,-92,-28,-11,61,81,-3,-118,-82,45,40,35,99,-101,-20, 
  /* [5][0][][] */ 110,-100,85,80,52,-126,33,51,115,-127,4,-66,22,107,41,45,60,70,-100,110,37,57,21,-24,-105,-59,-11,-107,48,38,24,-96,-39,7,-71,9,-119,-31,33,29,-87,-47,46,107,-29,32,44,-51,-108,103,32,40,28,22,44,-18,109,46,-47,-48,39,-80,46,-69,-40,112,-26,32,58,1,107,-69,-42,87,-47,-72,16,-51,17,81,117,52,20,121,-80,91,-5,47,72,-98,105,102,-21,14,82,-95, 
  /* [6][0][][] */ 14,-43,114,84,-93,-71,-6,74,-16,-88,3,-94,86,54,115,-125,39,-2,13,101,-84,-126,110,57,-64,-88,-13,-62,-32,-121,45,-84,-96,-127,-51,-105,-13,37,-100,80,86,54,22,-19,-120,105,-95,-50,-89,15,-30,-72,60,-59,93,-31,4,-6,-74,114,-102,0,65,-78,-57,65,101,-51,78,-6,-112,-9,54,-74,-98,-45,-87,-108,-61,-21,31,-32,42,-31,-77,-93,-41,-101,83,94,98,12,-57,-72,75,-29, 
  /* [7][0][][] */ 101,50,-37,-51,-96,127,-15,-21,119,5,-96,17,62,-85,52,64,60,22,-17,124,61,40,-2,94,-95,109,47,62,-74,116,-18,41,19,29,75,81,-104,94,-34,-25,103,-74,90,74,47,0,108,-111,55,-51,-109,-64,-23,92,23,37,127,-96,-6,-56,13,-8,88,-110,-67,-53,74,25,-105,23,74,93,92,9,69,64,-60,60,-98,26,99,-36,-13,-73,94,40,-118,101,90,11,94,56,-51,-36,2,-65, 
  /* [8][0][][] */ 21,20,-42,-99,71,36,-70,-35,10,36,51,101,10,-38,-81,-69,-65,103,-86,27,39,-21,87,118,-123,102,53,78,-62,29,-85,127,92,-27,56,-20,122,10,-38,77,89,111,-109,-115,-6,-21,-15,114,23,-87,-56,7,-65,-2,-24,-103,56,104,-86,107,122,39,52,119,-28,-39,-17,103,-85,53,39,6,85,74,14,25,-39,111,90,60,43,90,-106,-78,32,49,72,-34,44,-32,-89,111,-74,-96,-40,60, 
  /* [9][0][][] */ 15,35,127,68,60,-109,-19,-79,62,68,14,72,-14,-47,-63,-2,33,20,-62,-74,22,113,-70,-67,123,7,11,51,13,-75,-57,93,66,22,37,11,-40,36,-5,-18,64,-41,72,-58,95,36,-76,71,65,-8,-78,-40,92,-49,-46,113,94,-33,-9,22,-68,120,77,-57,-54,26,119,63,-13,113,116,-66,18,91,-73,-57,-65,-79,-11,120,51,37,109,37,-14,-62,56,2,109,52,1,78,114,25,71,-8, 
  /* [10][0][][] */ -84,64,95,-75,-37,115,114,7,37,30,27,-69,106,88,-31,1,-31,87,-119,-57,-14,33,61,-66,8,58,-114,-112,-44,87,-94,-79,81,105,127,53,-38,11,-57,38,-32,122,-112,-35,-106,-56,-1,-57,-1,8,41,17,65,24,-59,-31,-96,-20,26,-43,2,77,119,48,123,-73,-95,-22,27,-24,-90,-63,92,49,-77,112,-9,68,72,1,83,1,62,108,-99,74,97,-21,42,14,-1,-81,-48,-45,-41,-69, 
  /* [11][0][][] */ 94,28,-3,96,127,41,51,31,102,90,-64,100,-8,-67,34,-54,-41,-86,80,32,26,73,30,-89,-63,-77,-14,71,70,0,27,-7,-72,-32,43,62,-45,66,-7,-50,-22,94,-42,12,-27,-51,-81,-74,72,90,101,41,-55,-63,15,26,-34,-22,-29,-55,-72,84,85,10,42,79,-42,28,101,79,-73,-62,33,115,-68,54,-58,40,-34,101,-88,-22,-63,-40,46,-67,21,-21,-81,-7,34,-82,-46,-6,-64,-4, 
  /* [12][0][][] */ 5,77,-62,-1,82,-1,-44,40,-84,57,-23,10,-52,5,43,-88,-109,-41,-33,-91,19,-17,11,93,-70,-59,95,-107,88,6,-44,111,-93,-79,-56,29,-10,-85,-7,37,110,33,-120,-48,-28,-93,-49,113,-52,-127,-86,99,33,-7,-93,81,-28,-66,46,62,52,114,-14,47,109,27,-54,115,49,100,35,66,78,113,-25,-11,-45,29,-127,-88,-67,99,40,7,-44,25,51,110,-104,-119,92,36,97,-24,22,74, 
  /* [13][0][][] */ 124,-67,105,90,109,114,84,56,79,-111,18,-23,90,72,69,-39,-125,-67,-88,38,68,-29,118,-47,-62,49,10,12,-94,-86,92,47,45,110,-20,26,-89,-23,7,76,-58,85,-56,18,-37,37,7,-33,40,97,-31,-101,-108,37,109,-80,-50,26,-11,-82,-24,106,-72,19,-54,-58,-97,87,-53,-18,95,-1,-83,46,-85,-43,-104,65,85,-69,57,-87,91,31,-79,-97,94,127,-14,-48,-86,65,112,-61,71,-14, 
  /* [14][0][][] */ -61,-106,80,61,80,-36,-26,-123,-89,-45,61,75,-32,-89,-101,-94,-62,-69,6,21,-53,24,-10,53,-116,-79,-43,23,-124,-119,-86,35,97,-30,-41,-1,88,112,30,-122,-13,-122,34,83,60,-120,61,-94,108,32,78,49,90,-21,-25,7,-57,3,50,90,-19,-91,-31,68,-97,-22,69,-112,-92,-92,-98,88,-2,81,43,-83,48,-117,46,27,36,-25,-127,-39,-127,-98,-122,98,102,-1,82,-54,81,94,-20,64, 
  /* [15][0][][] */ 7,-39,-25,75,84,-79,71,-110,59,2,-70,13,119,10,-87,-127,102,17,-105,31,58,27,82,121,72,71,48,105,32,67,70,-108,1,12,-56,-15,-62,120,107,-67,22,121,-46,-21,19,-80,-51,-77,-8,-73,1,39,-95,-103,-46,0,80,55,-58,122,-40,-65,8,113,-28,106,-67,7,-50,11,74,-68,22,-21,72,-106,6,65,116,75,-78,57,-102,-69,-120,-32,-99,43,97,79,-107,-49,66,125,-104,124, 
  /* [16][0][][] */ -58,-2,108,-67,60,110,-54,36,57,45,-103,80,-15,-51,-52,-51,106,86,73,77,113,80,-41,53,-28,66,-65,59,-107,19,51,24,-103,85,56,53,-39,63,-66,-63,30,-40,75,99,73,115,116,-15,-54,-118,11,120,-47,126,77,50,23,92,82,8,122,108,41,70,54,22,-40,95,36,99,-36,-9,41,104,56,89,-10,98,-109,-17,18,-74,55,23,17,109,108,19,77,19,-22,127,69,-38,-83,19, 
  /* [17][0][][] */ 27,-116,25,80,-53,-121,-74,-104,38,-96,80,45,97,56,-124,43,28,48,116,110,-101,-19,8,-59,18,63,-86,23,103,-60,-40,71,-39,-30,27,3,-55,96,-95,-37,-104,-48,-22,-16,0,6,80,-119,81,103,-21,20,-23,73,95,-82,-127,86,-93,-120,27,-102,70,93,-93,-82,38,-111,-118,-10,106,24,10,-127,-74,62,113,-55,37,-61,5,-23,-84,-101,-121,68,77,-41,15,72,-104,-127,-18,92,7,9, 
  /* [18][0][][] */ -87,119,125,-28,-17,-105,-66,36,20,97,-71,-14,-29,49,83,-29,47,-7,78,-41,102,-12,47,-43,52,-72,5,127,51,8,22,21,64,-11,-99,-64,1,48,1,73,-16,18,-21,21,-75,26,30,25,44,-4,44,15,-68,-21,15,99,-47,47,0,-76,66,126,-2,33,-50,-83,3,94,81,-48,-39,107,-74,-29,-55,-61,29,78,24,-34,-32,1,-14,-62,114,-11,90,50,-78,-44,-25,70,83,-24,49,3, 
  /* [19][0][][] */ 18,31,76,42,57,-89,97,99,94,-66,28,-13,-99,32,-59,61,74,-109,127,57,-24,81,-58,12,80,-83,28,-70,-95,-123,-68,44,81,-87,32,0,8,-73,-48,-105,44,-121,-86,9,-91,28,76,-97,-30,37,-43,44,-36,12,4,-12,22,106,-4,-28,54,-57,101,61,-70,-4,-28,-2,-10,54,76,-54,-65,-125,-59,-83,-26,-116,13,118,58,-119,-32,77,-91,-9,11,-6,90,29,-5,63,-35,116,70,-50, 
  /* [20][0][][] */ -16,80,76,111,-100,118,23,72,13,22,-98,0,0,102,45,-85,-44,-41,-67,-39,30,-45,-79,-76,85,-83,-115,65,35,14,-48,120,114,50,-7,70,54,-38,-4,-122,-95,-41,-92,-116,-35,-76,-82,121,67,-120,-114,42,65,122,54,-1,114,94,103,112,125,-52,-74,-34,-11,-77,-51,23,-73,-73,-63,92,-74,-97,53,23,124,98,123,125,94,2,105,-32,65,127,-13,78,31,104,45,67,34,41,-6,23, 
  /* [21][0][][] */ 68,45,61,-103,87,-59,66,-8,-8,-65,-64,35,8,37,-46,-92,-90,-24,5,-6,98,-44,61,-72,28,-76,-27,65,16,8,-9,-16,-2,16,-76,-122,97,85,-127,-30,-5,8,20,-14,-107,-72,-77,80,-24,-57,-3,81,31,54,-80,26,-41,40,-41,104,52,-78,17,-7,70,29,-33,-66,-98,-12,55,72,31,-39,67,58,-95,-28,56,73,13,90,34,-63,22,-84,49,-71,-90,71,95,-101,-36,-57,61,-41, 
  /* [22][0][][] */ 20,-66,-83,-105,80,-51,102,46,-103,79,-82,-114,108,-117,-123,-94,31,78,-111,-66,83,-81,24,25,82,-11,-120,91,-67,-81,-74,-119,49,54,14,1,-5,-23,-68,-122,-5,-19,-10,85,43,-125,84,-32,-63,-86,2,-22,-67,-98,-59,29,-18,-36,-31,-37,105,-86,-81,-121,-71,12,-120,-58,99,92,-28,-7,-72,-3,58,-102,41,-59,58,84,100,-107,-77,-127,71,78,91,-38,-61,26,-78,61,15,18,-39,87, 
  /* [23][0][][] */ 62,-89,1,42,98,-112,0,-112,45,-66,77,75,16,-105,12,-35,81,-33,-95,96,85,-81,97,-37,-23,-7,75,16,65,40,70,-41,-31,35,19,24,94,-5,-127,-1,-100,2,0,-99,-70,-84,112,23,82,-105,-86,-47,71,-63,-48,81,-85,-25,101,38,-109,-78,-49,-10,13,30,-114,-112,51,-24,107,-67,3,-42,-33,-94,38,-21,84,95,-55,-39,15,-98,85,5,105,-25,-89,36,92,-5,93,-54,-35,71, 
  /* [24][0][][] */ -85,-58,-115,-77,-95,-121,-78,-99,65,116,80,43,115,59,-48,-127,-91,39,24,-61,95,-90,-64,-45,48,-37,71,55,106,57,-1,-70,-2,4,46,24,-62,-96,65,-27,-83,-109,102,-2,16,-44,39,69,-95,-53,-28,10,69,56,65,-83,-10,76,20,-5,90,-12,31,94,-108,95,-54,-98,-111,49,-65,-33,-47,35,92,100,60,-85,-115,-91,-88,-105,-70,-125,-4,60,-19,-110,23,-118,2,-82,-24,27,-105,27, 
  /* [25][0][][] */ -88,-25,-48,15,76,-87,-85,77,61,-78,-22,44,54,-5,-77,-1,-51,51,54,-117,53,98,10,-42,35,-44,-93,58,85,-102,54,99,100,-103,21,95,112,-54,7,-6,-73,96,-78,28,116,47,67,57,-72,94,-79,-12,63,-27,-51,33,-34,65,-81,84,94,64,31,30,-14,86,5,12,-73,13,-14,-115,33,-117,56,44,50,88,29,46,53,46,-64,75,-51,-46,-71,-86,-28,-26,125,10,-127,1,-13,-55, 
  /* [26][0][][] */ 72,-127,-25,-22,-69,-2,-11,-26,-107,-121,103,81,-77,-47,8,-11,110,30,-81,-63,13,69,96,12,50,63,12,43,11,7,-89,1,-18,-58,-93,-113,-65,83,-65,106,-97,100,53,29,-71,71,-38,97,-22,27,-3,98,8,-40,-5,-105,96,64,52,25,3,-95,67,-14,122,-21,-57,54,-85,74,85,95,80,-75,-80,5,46,-106,-95,-7,-28,78,80,-70,77,1,-48,13,-81,110,4,43,-54,109,49,81, 
  /* [27][0][][] */ 31,37,-30,-69,-94,-64,-43,14,67,124,58,-72,-8,77,103,2,89,5,87,-85,-70,36,1,2,-70,60,-80,27,85,13,-4,-3,83,85,-80,-54,-55,-41,-74,104,-68,38,49,44,118,46,83,126,114,83,76,-65,-55,-67,11,-11,112,4,-88,-47,-41,-26,-29,65,42,-20,-79,120,70,32,-87,23,79,-34,9,-54,46,-34,107,125,103,1,127,-40,-45,-56,-2,46,-25,18,0,-50,71,36,101,75, 
  /* [28][0][][] */ 85,30,100,72,-119,-69,-85,-51,-21,-71,73,71,-89,-77,25,117,115,115,-47,60,-27,39,-88,-57,-90,83,-87,-47,-71,-83,5,-8,-86,40,76,107,43,-92,-12,34,117,45,-80,73,-94,-2,22,59,42,-40,-92,-36,-69,45,48,40,65,8,73,79,-17,-22,-105,-4,87,91,-2,84,-56,40,-93,-46,73,51,14,-81,-111,-41,-75,79,-68,-92,127,-33,77,-108,86,-68,-98,-50,-3,-69,-27,87,-85,-55, 
  /* [29][0][][] */ 51,74,60,-45,-99,8,-126,26,104,-7,-97,-98,110,-112,-52,-49,-105,104,56,-74,-82,-36,58,4,-25,5,-49,-26,-109,-12,107,-9,66,-1,-88,-35,-10,105,14,98,48,109,-47,86,-1,107,-61,-26,21,-8,58,-104,81,-108,114,47,-103,68,-59,117,-127,116,-105,-58,-63,-70,55,95,108,-87,34,-79,114,81,67,27,117,-65,-34,55,-9,-92,-11,-86,65,119,54,79,-42,99,80,79,-111,18,-5,70, 
  /* [30][0][][] */ 27,-73,-69,37,-105,21,-72,-16,119,-21,-5,-44,-106,15,58,11,-9,33,98,-111,40,-110,-123,10,-122,22,-78,119,-17,-115,-102,6,-88,-78,-127,-61,11,-22,-6,22,90,-84,-17,100,106,-51,104,60,-74,79,18,-114,99,-56,-15,104,-88,-59,-90,-62,-113,-8,-82,-33,-118,-95,-104,95,-67,113,50,-40,-98,108,38,-94,-63,-80,-84,-65,27,24,-110,-25,-117,26,-117,113,-43,-126,81,57,-39,-2,8,-78, 
  /* [31][0][][] */ 72,-65,44,94,68,74,-40,-64,-21,4,-60,-51,93,-92,-30,113,-21,-71,61,41,59,47,-4,100,64,-83,38,64,-32,-62,52,92,45,23,-54,8,113,-21,-41,-88,56,-51,-14,40,10,-43,-29,44,77,46,80,-24,-69,-46,-66,25,-86,87,27,127,-33,30,75,-49,85,99,-20,-58,92,-79,-73,20,-72,-31,30,20,-50,-10,52,84,-58,-22,73,62,57,89,-48,16,26,-40,-39,-47,36,110,-1,-2, 
};
const TfArray<4, int> tensor_dimension5 = { 4, { 32,1,1,96 } };
const TfArray<32, float> quant5_scale = { 32, { 0.0018327961442992091, 0.0017429260769858956, 0.0018850257620215416, 0.0018849613843485713, 0.0017877869540825486, 0.0017419110517948866, 0.0017633435782045126, 0.0017738235183060169, 0.0018022819422185421, 0.0020732732955366373, 0.0018021231517195702, 0.0020986362360417843, 0.0017756398301571608, 0.0017982664285227656, 0.0018065092153847218, 0.0017542503774166107, 0.0017746173543855548, 0.0017928022425621748, 0.002065644133836031, 0.0017652838723734021, 0.0016338038258254528, 0.0020578580442816019, 0.0018402700079604983, 0.0019342342857271433, 0.0017553861252963543, 0.0019730341155081987, 0.0018682462396100163, 0.0019211064791306853, 0.0018238116754218936, 0.0017188834026455879, 0.0017239047447219491, 0.0021669487468898296, } };
const TfLiteAffineQuantization quant5 = { (TfLiteFloatArray*)&quant5_scale, (TfLiteIntArray*)&g0::quant4_zero, 0 };
const MODEL_SECTION(EI_MODEL_SECTION) ALIGN(16) int32_t tensor_data6[96] = { -2333, 3545, 12047, 2138, -3714, -3289, 20368, 2094, 2346, -2050, 14213, -326, -10509, 3228, 13450, 6613, 14704, 5882, -4723, -5803, 5970, 26317, 20095, 14935, 1388, 772, 5744, 4185, 2639, -5981, 6884, -3587, -305, 6691, 79, 910, 10308, 5540, -1834, 6253, 9301, 6274, 5800, 11819, 4396, 5170, 2176, 7009, 5555, -6058, -8574, 806, -289, -1872, 1999, -38, 308, -910, -5694, 11579, -1348, 2012, -1513, -2287, -4645, 7834, 22382, 2388, -2396, 976, 1445, 2849, 1911, -1173, 634, 12933, -736, 17527, 21450, -1014, 10093, 2488, -655, 1569, 14362, 9985, 3963, 1810, 8078, 5111, -524, -9399, 952, -2496, -2151, -2158, };
const TfArray<1, int> tensor_dimension6 = { 1, { 96 } };
const TfArray<96, float> quant6_scale = { 96, { 0.00026277737924829125, 0.0004422779893502593, 0.00019843819609377533, 0.00041097326902672648, 0.00027967910864390433, 0.00044550900929607451, 0.00016281519492622465, 0.00034688314190134406, 0.0002625363995321095, 0.00031398693681694567, 0.00013931719877291471, 0.00020962902635801584, 0.00024170073447749019, 0.00087426742538809776, 0.00022950008860789239, 0.00017625064356252551, 0.00012799190881196409, 0.00024798887898214161, 0.00040547159733250737, 0.00028997781919315457, 0.00010524960089242086, 0.00010344147449359298, 0.0001529832516098395, 0.00011259239545324817, 0.00013185206626076251, 0.00064162863418459892, 0.00051728979451581836, 0.00026132378843612969, 0.00019256507221143693, 0.00032844231463968754, 0.0002127839979948476, 0.00021529894729610533, 0.00017556059174239635, 0.00017477426445111632, 0.00035633932566270232, 0.00026131805498152971, 0.00018551597895566374, 0.00019507433171384037, 0.00031646815477870405, 0.00028551393188536167, 0.00013735893298871815, 0.00041535435593686998, 0.00026234856341034174, 0.00019616346980910748, 0.00043941164040006697, 0.0001945669500855729, 0.00023836619220674038, 0.00030988469370640814, 0.00024335632042493671, 0.00021908282360527664, 0.00018542016914580017, 0.0001205143125844188, 0.00050381961045786738, 0.00016101608343888074, 0.0003869836509693414, 0.00035784361534751952, 0.00036733629531227052, 0.00028468380332924426, 0.00027278810739517212, 0.00016039972251746804, 0.00054107094183564186, 0.00032482057576999068, 0.0001730084914015606, 0.00034256253275088966, 0.00040362880099564791, 0.00024355427012778819, 9.6628369647078216e-05, 0.00017229560762643814, 0.00048915727529674768, 0.00033306429395452142, 0.00027063628658652306, 0.00018231598369311541, 0.00070958118885755539, 0.00034606142435222864, 0.0002895014185924083, 0.00016741613217163831, 0.00019252655329182744, 0.00010757400741567835, 8.5489933553617448e-05, 0.00018979654123540968, 0.00014663804904557765, 0.00013554799079429358, 0.00014039097004570067, 0.00015669176355004311, 0.00012738375517074019, 0.00023966013395693153, 0.00059115840122103691, 0.00015846428868826479, 8.9035318524111062e-05, 0.00040078553138300776, 0.00018090536468662322, 0.00020856584887951612, 0.00022289807384368032, 0.00041423315997235477, 0.00029531563632190228, 0.00018469014321453869, } };
const TfArray<96, int> quant6_zero = { 96, { 0,0,0,0,0,0,0,0,0,0,0,0,0,0,0,0,0,0,0,0,0,0,0,0,0,0,0,0,0,0,0,0,0,0,0,0,0,0,0,0,0,0,0,0,0,0,0,0,0,0,0,0,0,0,0,0,0,0,0,0,0,0,0,0,0,0,0,0,0,0,0,0,0,0,0,0,0,0,0,0,0,0,0,0,0,0,0,0,0,0,0,0,0,0,0,0 } };
const TfLiteAffineQuantization quant6 = { (TfLiteFloatArray*)&quant6_scale, (TfLiteIntArray*)&quant6_zero, 0 };
const MODEL_SECTION(EI_MODEL_SECTION) ALIGN(16) int8_t tensor_data7[96*1*1*16] = { 
  /* [0][0][][] */ -33,88,-11,-127,-34,-32,-36,-68,-26,8,-3,66,13,-60,-13,57, 
  /* [1][0][][] */ -29,28,-57,-2,-29,-34,27,-78,66,44,-52,23,5,6,47,-127, 
  /* [2][0][][] */ -9,22,-52,30,55,28,-59,-78,127,-47,2,8,-29,97,-77,34, 
  /* [3][0][][] */ 44,-64,14,-107,6,-24,2,7,127,3,85,53,-10,53,28,125, 
  /* [4][0][][] */ -80,53,4,32,2,-23,-7,41,-7,4,15,-32,-127,-19,-22,38, 
  /* [5][0][][] */ 5,59,105,-2,14,71,-83,67,-59,66,-28,-37,36,-50,-127,27, 
  /* [6][0][][] */ 45,-58,127,-120,32,-6,-49,106,-76,-110,48,-35,6,89,-22,82, 
  /* [7][0][][] */ 34,124,-33,-57,91,15,10,-45,127,91,-29,20,27,-23,65,52, 
  /* [8][0][][] */ 15,-94,4,-95,29,-62,14,-82,21,62,71,-13,18,127,78,67, 
  /* [9][0][][] */ 12,-26,-2,127,36,-12,40,-56,-59,110,28,-17,-4,-60,-4,-10, 
  /* [10][0][][] */ -15,23,-57,-127,17,5,-6,32,27,-30,23,-29,-23,-49,-3,34, 
  /* [11][0][][] */ 7,16,23,-18,83,-34,81,-53,-90,41,-6,26,0,127,-76,-27, 
  /* [12][0][][] */ 81,-28,-123,-4,30,-91,21,34,10,61,-92,-58,-44,127,-10,21, 
  /* [13][0][][] */ -18,11,-29,5,2,-127,-5,19,3,-17,7,-3,9,-16,9,14, 
  /* [14][0][][] */ 20,-22,97,-27,60,13,-127,-106,-12,-46,37,27,4,-58,-12,-41, 
  /* [15][0][][] */ -88,9,-28,-61,6,-2,127,48,-47,52,72,-38,16,75,57,9, 
  /* [16][0][][] */ 22,57,127,90,-8,12,85,86,-105,12,-84,-17,24,-1,1,-78, 
  /* [17][0][][] */ -36,-102,-17,26,-66,-25,-62,17,-127,-34,10,-49,-4,39,56,-33, 
  /* [18][0][][] */ 2,46,7,68,29,4,26,8,73,52,-28,-34,18,127,62,22, 
  /* [19][0][][] */ 8,-22,28,2,90,14,-82,-56,-105,-67,-26,-127,-33,-48,-6,-26, 
  /* [20][0][][] */ 92,-25,-81,-47,22,-127,-3,16,-74,25,-110,-31,14,-10,12,16, 
  /* [21][0][][] */ 52,-15,53,-27,4,8,-8,67,-14,-97,75,22,-11,127,35,81, 
  /* [22][0][][] */ -29,35,-48,127,-45,1,87,62,-20,40,-19,28,-15,-1,17,10, 
  /* [23][0][][] */ 68,-6,89,-92,57,-17,-21,36,2,19,-7,-31,-9,-24,-127,34, 
  /* [24][0][][] */ -127,42,17,-13,7,108,32,-18,2,23,109,-4,-73,23,65,-35, 
  /* [25][0][][] */ 29,22,9,19,12,6,63,-48,-8,-127,-17,-23,-9,-34,9,24, 
  /* [26][0][][] */ -39,-1,-6,10,-42,-6,-33,-38,-102,-35,6,-31,6,127,-31,46, 
  /* [27][0][][] */ -2,28,12,68,36,-33,-21,-29,54,8,-29,-3,9,127,-12,17, 
  /* [28][0][][] */ 20,68,65,68,127,-2,32,38,-84,-15,-49,-27,22,102,53,-43, 
  /* [29][0][][] */ 4,-6,11,22,28,-4,5,43,-21,-12,-20,-127,2,-15,-22,4, 
  /* [30][0][][] */ -22,81,-47,78,-34,-15,47,-127,-39,59,-13,1,53,40,80,80, 
  /* [31][0][][] */ -44,-26,-17,-66,-11,4,-45,-113,27,87,-7,-127,-38,-53,9,17, 
  /* [32][0][][] */ -127,-83,-5,63,55,34,-19,12,-7,-49,-111,43,78,0,60,76, 
  /* [33][0][][] */ -8,-44,-48,-12,-89,-15,-90,1,60,10,10,-55,33,-127,125,38, 
  /* [34][0][][] */ 48,-10,59,24,42,14,-50,75,-84,-42,62,17,13,-11,-20,127, 
  /* [35][0][][] */ -43,54,-81,14,-13,-12,27,-127,86,93,-89,-2,5,-10,79,-125, 
  /* [36][0][][] */ -23,30,26,127,35,15,105,32,-17,42,-33,-17,-4,17,-69,-43, 
  /* [37][0][][] */ 11,-14,19,-57,-7,-10,-44,-39,-75,-6,-6,-11,9,-127,56,-35, 
  /* [38][0][][] */ 54,101,-8,-57,127,-6,35,-32,122,71,-17,-6,15,-28,50,15, 
  /* [39][0][][] */ -33,59,-14,-127,-10,10,-41,28,38,-68,-21,-22,7,65,38,33, 
  /* [40][0][][] */ 7,-33,32,-93,6,-21,-14,-37,-127,1,-16,-33,-2,-111,82,-66, 
  /* [41][0][][] */ -5,-22,-41,-21,7,-37,14,-5,-35,21,-51,-13,-127,6,24,38, 
  /* [42][0][][] */ 127,92,-39,-28,-76,-52,-19,-62,-2,19,95,-60,-69,47,102,-112, 
  /* [43][0][][] */ -24,122,-95,-16,73,-11,127,-52,60,82,-38,2,20,-127,-73,-56, 
  /* [44][0][][] */ -19,-17,2,-43,55,-3,-90,-127,-23,-4,6,-1,2,-40,59,-54, 
  /* [45][0][][] */ -16,49,-127,-46,26,-60,31,-75,14,23,10,-66,19,-23,55,-24, 
  /* [46][0][][] */ 4,2,-25,-96,-8,13,18,-34,-127,-28,7,10,-15,-126,65,-29, 
  /* [47][0][][] */ 19,49,20,-18,127,-14,-25,13,-55,37,0,19,5,-1,110,-26, 
  /* [48][0][][] */ -127,-81,-17,42,61,14,10,-13,4,-13,-119,47,71,12,85,50, 
  /* [49][0][][] */ 9,16,98,76,127,5,54,19,-113,-53,-30,-71,8,125,26,-65, 
  /* [50][0][][] */ 25,-17,-96,-16,26,-127,-33,-18,-18,-28,1,-35,38,-16,-2,12, 
  /* [51][0][][] */ 8,41,38,11,29,2,-9,24,-127,50,2,-118,-1,-106,-31,88, 
  /* [52][0][][] */ 4,60,8,54,43,-1,20,47,73,87,-27,-50,34,127,68,18, 
  /* [53][0][][] */ -6,-44,-26,-22,-88,-11,-89,0,41,15,10,-65,24,-127,118,25, 
  /* [54][0][][] */ 48,-8,-53,4,127,84,-114,-50,-75,-15,-27,-71,-5,-45,-8,-41, 
  /* [55][0][][] */ 43,-5,10,7,39,-34,-59,-127,-28,-72,-52,15,-10,-20,23,-13, 
  /* [56][0][][] */ -17,13,20,-27,-8,-29,-99,66,-14,127,-6,-18,27,1,-7,11, 
  /* [57][0][][] */ -7,25,-59,-25,-54,-50,127,82,-34,23,-10,-3,23,22,127,-5, 
  /* [58][0][][] */ 56,31,-127,43,103,116,-28,58,-102,-51,6,16,-45,35,7,-32, 
  /* [59][0][][] */ -94,63,114,26,-80,-67,118,127,21,9,26,-18,18,14,69,-1, 
  /* [60][0][][] */ 3,0,-60,-7,26,-127,-28,-6,-17,-22,-6,-30,22,-20,-2,13, 
  /* [61][0][][] */ 20,-6,22,127,80,24,32,2,-100,-4,19,46,-15,30,38,-58, 
  /* [62][0][][] */ -45,127,12,-43,-34,-14,-68,55,-28,-58,-91,-62,-5,-101,-64,-33, 
  /* [63][0][][] */ -45,32,-30,127,-75,14,-69,-33,-63,-27,-22,-37,23,63,42,39, 
  /* [64][0][][] */ 6,5,5,49,-3,11,-13,67,28,5,-15,-40,-12,-127,53,-3, 
  /* [65][0][][] */ -22,-34,1,-127,50,-28,67,-41,-3,45,16,-99,-19,5,25,-53, 
  /* [66][0][][] */ 27,-29,82,-16,-6,16,7,100,23,-64,61,49,0,127,32,66, 
  /* [67][0][][] */ -5,52,-22,-127,-9,0,-55,28,74,-95,-25,-8,24,74,69,37, 
  /* [68][0][][] */ -36,41,127,8,15,10,2,-9,-34,-22,-14,-30,9,-16,95,-42, 
  /* [69][0][][] */ 127,91,-27,-11,-90,-32,-27,-47,2,16,101,-60,-74,57,73,-100, 
  /* [70][0][][] */ 37,13,-62,-15,-24,30,55,127,-39,91,-35,7,6,66,-29,25, 
  /* [71][0][][] */ 11,-5,-3,14,-2,-85,-2,27,-34,21,-84,3,-127,-4,40,48, 
  /* [72][0][][] */ 16,19,-127,20,7,8,21,103,-46,-23,3,-11,27,17,-5,8, 
  /* [73][0][][] */ -46,19,35,0,47,-39,-78,-127,14,-72,32,-22,16,-50,35,-11, 
  /* [74][0][][] */ 6,33,47,127,18,-12,-94,97,-79,18,-57,42,26,-125,34,-94, 
  /* [75][0][][] */ -5,25,-44,12,18,-13,10,-10,109,12,-18,-9,15,127,-44,6, 
  /* [76][0][][] */ 4,-15,2,23,-2,-17,-12,67,21,-28,-25,-127,0,-3,12,9, 
  /* [77][0][][] */ -6,23,-24,127,-52,13,69,102,2,45,-15,27,-10,-25,-18,-3, 
  /* [78][0][][] */ 14,-3,31,-119,43,-46,-56,59,16,-49,-2,-53,38,127,12,63, 
  /* [79][0][][] */ -15,-88,-74,-58,-84,-7,21,-79,127,10,34,57,14,40,49,-48, 
  /* [80][0][][] */ -58,0,101,-108,21,-38,15,-105,-83,38,-49,-127,15,90,76,-31, 
  /* [81][0][][] */ -44,42,-126,24,70,-127,-19,57,-8,-44,61,-6,28,-1,7,-2, 
  /* [82][0][][] */ 127,-8,-6,13,15,-110,-15,18,-14,-11,-97,0,110,10,-2,27, 
  /* [83][0][][] */ -41,82,-123,-86,-27,-12,48,-127,65,46,-42,-122,11,49,52,99, 
  /* [84][0][][] */ -30,27,89,-26,-9,-39,62,-127,-51,59,-21,-70,44,58,67,1, 
  /* [85][0][][] */ -82,127,33,-119,-80,-35,-32,1,-63,0,-76,20,9,-16,-101,-25, 
  /* [86][0][][] */ -11,10,-40,-4,-25,-28,127,20,-5,-31,2,8,4,27,82,-14, 
  /* [87][0][][] */ -28,-38,-3,-127,8,-32,58,-20,-2,21,-7,-126,-20,0,14,-44, 
  /* [88][0][][] */ 98,-17,31,-12,16,-119,-11,29,-67,24,-127,-64,29,22,67,5, 
  /* [89][0][][] */ 30,-28,-33,-44,19,-18,-25,-1,-41,10,29,-60,127,-7,32,-46, 
  /* [90][0][][] */ -5,-47,30,-67,68,0,-62,79,64,-87,-32,-20,-17,117,25,-127, 
  /* [91][0][][] */ -37,-2,-26,-46,19,-9,-27,-86,11,52,-12,-127,-34,-8,-3,16, 
  /* [92][0][][] */ -26,24,37,13,0,-127,16,-1,2,-27,4,-12,1,-27,21,4, 
  /* [93][0][][] */ 41,-17,127,-10,-51,56,30,-25,-17,23,-66,-15,-19,-1,35,0, 
  /* [94][0][][] */ 23,4,-19,-26,24,-2,-11,-9,-28,-18,18,-53,127,-19,33,-33, 
  /* [95][0][][] */ 127,83,4,40,-95,-21,-69,-3,-23,-12,82,-42,-39,29,74,-74, 
};
const TfArray<4, int> tensor_dimension7 = { 4, { 96,1,1,16 } };
const TfArray<96, float> quant7_scale = { 96, { 0.00076245132368057966, 0.0012832742650061846, 0.00057577050756663084, 0.0011924433056265116, 0.00081149186007678509, 0.0012926490744575858, 0.00047241002903319895, 0.0010064850794151425, 0.00076175213325768709, 0.00091103638987988234, 0.00040423031896352768, 0.00060824083629995584, 0.00070129724917933345, 0.0025366961490362883, 0.00066589692141860723, 0.00051139312563464046, 0.00037136988248676062, 0.00071954238228499889, 0.0011764800874516368, 0.0008413736941292882, 0.0003053828258998692, 0.00030013654031790793, 0.00044388254173099995, 0.000326688023051247, 0.00038257017149589956, 0.0018616922898218036, 0.0015009217895567417, 0.00075823377119377255, 0.00055872957454994321, 0.00095297885127365589, 0.00061739503871649504, 0.00062469218391925097, 0.000509390898514539, 0.00050710939103737473, 0.0010339223081246018, 0.0007582171238027513, 0.00053827656665816903, 0.00056601024698466063, 0.00091823568800464272, 0.00082842173287644982, 0.00039854840724729002, 0.0012051550438627601, 0.0007612071349285543, 0.00056917039910331368, 0.0012749575544148684, 0.00056453805882483721, 0.00069162202998995781, 0.00089913373813033104, 0.00070610095281153917, 0.00063567113829776645, 0.00053799856686964631, 0.00034967355895787477, 0.0014618379063904285, 0.00046718984958715737, 0.0011228371877223253, 0.0010382870677858591, 0.0010658301180228591, 0.00082601309986785054, 0.00079149758676066995, 0.000465401477413252, 0.001569923129864037, 0.00094247033121064305, 0.00050198595272377133, 0.00099394877906888723, 0.0011711332481354475, 0.00070667528780177236, 0.00028036822914145887, 0.00049991754349321127, 0.0014192949747666717, 0.00096638960530981421, 0.00078525405842810869, 0.00052899174625054002, 0.0020588573534041643, 0.0010041008936241269, 0.00083999143680557609, 0.00048575969412922859, 0.00055861781584098935, 0.00031212711473926902, 0.00024804993881843984, 0.00055069668451324105, 0.00042547183693386614, 0.0003932939434889704, 0.00040734588401392102, 0.00045464280992746353, 0.00036960531724616885, 0.00069537642411887646, 0.001715252292342484, 0.00045978580601513386, 0.00025833692052401602, 0.0011628834763541818, 0.00052489881636574864, 0.00060515600489452481, 0.00064674112945795059, 0.0012019019341096282, 0.00085686147212982178, 0.00053588039008900523, } };
const TfLiteAffineQuantization quant7 = { (TfLiteFloatArray*)&quant7_scale, (TfLiteIntArray*)&g0::quant6_zero, 0 };
const MODEL_SECTION(EI_MODEL_SECTION) ALIGN(16) int32_t tensor_data8[16] = { -8896, 21048, -17733, -6230, -10221, 9789, 27879, -51888, -1026, 20661, 26333, 15974, -10150, 13886, -7504, 10270, };
const TfArray<1, int> tensor_dimension8 = { 1, { 16 } };
const TfArray<16, float> quant8_scale = { 16, { 0.000846348877530545, 0.00050911481957882643, 0.00021938099234830588, 0.00028011802351102233, 0.00048202637117356062, 0.00032895294134505093, 0.00033116212580353022, 0.00032564508728682995, 0.00030996330315247178, 0.00026479337248019874, 0.00060787471011281013, 0.00052015896653756499, 0.00038597980164922774, 0.00023327860981225967, 0.0006677734199911356, 0.00052805390441790223, } };
const TfArray<16, int> quant8_zero = { 16, { 0,0,0,0,0,0,0,0,0,0,0,0,0,0,0,0 } };
const TfLiteAffineQuantization quant8 = { (TfLiteFloatArray*)&quant8_scale, (TfLiteIntArray*)&quant8_zero, 0 };
const MODEL_SECTION(EI_MODEL_SECTION) ALIGN(16) int8_t tensor_data9[16*1*1*96] = { 
  /* [0][0][][] */ -21,-16,6,-34,18,-10,-38,2,14,7,-10,7,-9,-8,-28,3,0,2,0,-5,13,-29,8,8,4,14,5,127,36,-35,45,-9,1,9,9,0,-10,14,-42,-7,-10,8,2,34,9,18,16,3,23,4,-5,13,14,-24,-8,82,2,9,-32,-39,-2,26,1,-21,-44,-65,-18,41,8,11,20,-12,-10,-30,-4,-23,-29,21,-1,8,-7,-29,28,25,0,-13,-12,-91,7,-13,2,-7,45,-30,-33,-9, 
  /* [1][0][][] */ 31,-81,-78,-54,127,-9,71,40,-20,-89,-60,-23,-6,-13,-58,34,-68,8,54,53,23,39,-13,-63,10,-12,-7,-80,29,-25,-58,32,-30,34,8,-4,16,1,-3,15,-26,44,-50,-26,-47,99,3,8,19,-76,5,-48,-25,46,50,20,-67,-17,-31,-34,24,-14,-7,-49,-93,116,-25,-20,-13,-20,-15,25,56,-113,-39,7,29,-60,51,0,0,-35,28,-5,-59,28,-15,21,32,-48,4,1,29,14,38,101, 
  /* [2][0][][] */ 3,62,-79,-8,80,75,27,71,0,-109,-5,-12,3,-6,34,28,6,-13,-51,65,13,-2,67,19,42,22,-6,-31,30,-4,44,-60,29,36,-26,40,-127,-89,30,28,-2,-47,10,-16,18,-36,-4,70,-18,21,-30,0,85,-8,-14,47,32,7,30,8,21,15,28,-20,20,-7,-28,7,-49,-6,-24,-43,-41,-72,3,53,64,43,32,-15,24,-34,9,-12,-41,20,19,49,-19,23,-1,-15,2,-37,-57,5, 
  /* [3][0][][] */ 69,28,90,-11,59,-39,11,-8,-17,-65,13,-40,8,31,37,107,16,-1,23,6,113,-13,35,11,59,-18,-22,25,35,42,-13,87,-103,17,23,-1,-29,-31,-1,50,-86,-38,82,19,19,36,-45,-87,-57,-37,-49,40,1,-127,7,23,-98,65,59,37,10,87,-10,-48,38,62,-13,-56,32,-34,-8,-72,49,-35,64,-21,20,7,51,49,-29,-69,16,-5,-27,23,24,42,20,13,11,48,36,95,38,-36, 
  /* [4][0][][] */ 26,-12,22,-15,127,31,-2,-14,-43,-39,-33,-27,-48,26,-11,44,31,-83,-28,74,-22,10,33,-12,6,-2,7,-41,11,-12,56,-30,89,11,-15,7,33,11,3,2,-22,-6,-29,-29,0,-42,-8,4,38,14,-15,12,-11,-39,16,-28,23,-18,-37,21,4,57,65,27,36,48,-15,-1,-37,0,39,64,9,-59,-49,-25,25,39,71,-31,-2,-33,5,-1,-59,4,40,52,-44,36,2,-46,5,17,26,-18, 
  /* [5][0][][] */ 5,-11,-8,7,29,-22,34,-19,-26,-37,-10,11,2,22,-1,13,-2,-10,21,-11,23,18,-36,66,11,0,8,-94,0,33,19,28,1,6,10,-56,19,14,-12,11,-14,-12,23,-21,-2,6,8,-22,-13,-11,14,-10,-10,-34,-3,-56,-6,9,-26,10,71,8,7,38,-4,49,8,76,16,83,7,33,3,17,-10,66,-32,-4,11,8,-5,-4,2,24,-5,15,-17,127,4,30,-7,-6,-2,22,-51,21, 
  /* [6][0][][] */ 28,-83,19,-41,-26,7,30,25,1,3,-12,-71,-39,4,-34,26,20,-13,5,-11,-38,40,19,10,-18,4,-19,-16,-13,19,42,-1,63,7,57,-7,-10,-10,14,-89,-25,84,6,-37,22,-17,-16,14,-12,36,-22,65,-26,-66,-5,-9,4,-66,-12,-4,-9,57,44,-71,30,-30,4,-24,-1,4,127,9,-47,13,-28,29,-79,-6,11,9,35,38,20,3,-18,2,34,19,11,12,45,-40,-16,-1,-27,-18, 
  /* [7][0][][] */ 9,127,40,14,111,50,36,-35,-23,-34,33,-13,-19,22,26,31,7,-32,-1,33,30,-34,31,10,-10,10,16,14,17,-18,11,15,38,-5,-48,12,22,7,-2,87,-50,20,14,25,-16,-31,22,-17,-28,-31,25,6,26,-37,-39,49,48,1,-13,2,-16,-47,-10,-9,-47,65,-35,-82,-13,-40,-9,56,-10,-31,19,8,59,50,43,-18,-46,-35,-10,-12,-19,49,-4,-6,-30,24,-40,-28,-44,-21,19,-5, 
  /* [8][0][][] */ -6,-5,54,17,-127,-33,46,-15,27,87,67,14,-16,19,22,6,-40,7,16,-5,-33,1,-109,66,9,-31,59,-18,9,13,4,58,78,-14,2,-12,-27,-16,0,36,19,-27,48,3,-37,-1,49,1,-103,22,30,29,-66,-41,-31,39,14,-57,-91,-23,21,-29,-25,-6,3,79,2,-56,20,-16,-49,-21,35,58,60,-10,-22,-39,-20,27,-87,14,-16,-5,28,15,64,46,28,-32,50,45,0,1,46,20, 
  /* [9][0][][] */ 5,-108,-13,23,97,90,-43,-38,38,-48,91,103,-12,10,106,-104,9,-27,-11,19,-60,-54,29,-20,-35,5,-5,26,-30,16,-4,-16,11,20,-119,39,3,14,-14,70,35,-76,-25,71,0,-24,-85,-38,45,36,-19,-82,71,27,-22,-62,-3,88,-16,2,17,-66,-39,127,-92,-19,3,-14,-7,24,-66,-91,57,-6,0,26,64,-74,28,-1,-17,-16,15,23,-4,-72,27,1,3,-42,-61,44,-69,-17,-6,-40, 
  /* [10][0][][] */ -47,-26,-28,-41,-29,-4,67,-20,33,19,31,33,24,-10,-3,-8,-9,17,-21,-21,-1,35,17,22,-14,-7,10,-127,22,-47,58,-33,4,19,-1,-10,-2,34,-1,-10,11,-30,21,-54,15,0,24,16,-3,43,-29,-18,-39,-24,-7,-56,17,15,-8,-39,24,12,-4,9,-36,92,-10,-33,15,-27,0,-15,-32,-6,14,54,-11,36,-20,12,-19,-1,6,23,8,-22,-6,117,-2,-4,14,9,21,-34,46,-36, 
  /* [11][0][][] */ -84,25,3,-2,22,-67,-20,-4,-41,-6,-8,22,36,17,-25,-3,52,3,-66,-52,18,-7,-4,-4,76,8,60,2,-22,31,-44,16,-11,28,-14,-6,-16,0,27,15,-22,-8,3,9,84,9,76,21,52,43,-5,41,13,-71,24,-5,-68,-22,-32,-48,-8,-16,4,26,1,-30,30,5,21,0,-13,33,-27,14,31,2,-17,82,-127,69,-43,1,-66,-65,124,21,36,-5,11,45,-36,-53,-22,41,-27,2, 
  /* [12][0][][] */ -7,-1,-32,-3,57,15,-4,-10,-15,11,25,0,9,-13,30,-8,-27,-14,11,-19,-5,-14,-39,47,-26,44,-23,94,-14,38,-28,1,-9,27,11,30,-22,-23,13,14,-1,-18,-9,3,-10,1,19,19,2,2,2,-23,-21,7,-18,-19,-8,-13,10,17,-9,-24,2,41,35,-72,16,54,-27,-127,-9,45,0,10,19,75,4,-16,-8,-5,0,24,-34,4,14,-14,-1,-40,-2,17,3,4,-38,37,-7,25, 
  /* [13][0][][] */ -78,62,1,-12,-57,0,-19,12,-43,-20,41,33,92,19,-31,0,-14,27,-39,-15,17,-7,60,-62,70,46,-5,-6,18,-27,-41,-95,-89,-29,1,5,-6,21,37,-21,-41,75,4,13,51,5,-8,-2,74,-14,40,83,70,-75,91,-19,-22,47,41,-2,11,32,-6,26,3,-25,7,13,22,20,22,-127,7,-22,-81,11,57,46,-55,-41,94,-14,9,-17,45,-28,88,7,-26,1,-27,25,34,-45,-24,13, 
  /* [14][0][][] */ -26,12,-14,-45,34,1,-5,27,-87,6,16,11,-34,-57,-81,-32,-90,-17,75,10,38,-6,20,-96,-38,21,-47,-22,14,-24,-10,-28,-64,-29,28,14,-9,7,7,-1,12,88,-70,-15,-45,30,13,11,127,-32,32,-16,26,58,-101,26,-24,33,-106,15,1,36,41,25,2,33,-3,-2,-48,29,66,41,31,-7,-27,20,49,-70,-26,-94,19,-35,11,37,32,-68,-38,3,-42,26,37,40,15,40,18,-18, 
  /* [15][0][][] */ -34,-69,-13,-36,6,14,-8,-67,-19,15,-7,-29,42,-17,47,-10,-90,1,-22,17,-20,1,-67,-42,-13,-5,-3,21,-24,-21,59,-90,-10,29,15,8,-1,25,-88,8,24,-70,-4,32,-29,-49,46,32,42,12,-14,-127,1,49,-5,42,34,-13,-13,44,1,-3,36,-7,7,-11,-15,-4,-27,23,4,30,-32,0,3,-36,-24,-14,10,4,-9,32,-7,62,-19,-39,-28,-36,-42,51,25,80,-32,-8,-4,-12, 
};
const TfArray<4, int> tensor_dimension9 = { 4, { 16,1,1,96 } };
const TfArray<16, float> quant9_scale = { 16, { 0.035969827324151993, 0.021637378260493279, 0.0093236919492483139, 0.011905016377568245, 0.020486120134592056, 0.013980499468743801, 0.014074389822781086, 0.013839916326105595, 0.013173440471291542, 0.011253718286752701, 0.025834674015641212, 0.022106755524873734, 0.016404140740633011, 0.0099143404513597488, 0.028380369767546654, 0.022442290559411049, } };
const TfLiteAffineQuantization quant9 = { (TfLiteFloatArray*)&quant9_scale, (TfLiteIntArray*)&g0::quant8_zero, 0 };
const MODEL_SECTION(EI_MODEL_SECTION) ALIGN(16) int32_t tensor_data10[96] = { 16463, 67232, -2771, 688, 20815, -6934, -750, -269, 7480, 17723, -9762, 672, 1750, 3941, 6736, -8414, -4328, 530, 1307, 19585, -11385, 8853, 3070, 6685, 33225, -140, -2389, 17100, 12137, -22978, 4124, 21330, 21506, -9368, 627, -929, -2117, 1230, 6095, -7262, -5772, -1853, -21871, 1035, 28853, -2651, 11408, 2599, -18529, 3671, -120, 2384, -3021, 21785, -3883, 21602, 19318, 1288, 30919, 140, -10145, -174, 5224, 1017, 4923, 14761, -1953, -3699, -4924, 3850, 1099, -353, 4132, -560, -3302, -5766, 3072, -1645, 45206, -7291, -7716, -11504, -572, 1053, 59903, -12332, -8989, -29053, -10700, 5709, -4971, 26702, 30, -2183, -5304, 2009, };
const TfArray<96, float> quant10_scale = { 96, { 0.00013007508823648095, 7.9852572525851429e-05, 0.00010038277832791209, 0.00012724193220492452, 0.00013803310866933316, 0.00011465821444289759, 7.2079863457474858e-05, 6.315234350040555e-05, 0.000163808319484815, 0.00013403431512415409, 0.00022683652059640735, 9.9594028142746538e-05, 0.00021085141634102911, 0.00017551385099068284, 0.0003164297086186707, 0.00018024457676801831, 0.0002297269384143874, 0.00014459123485721648, 0.00011254894343437627, 6.2773513491265476e-05, 8.9504552306607366e-05, 7.3788709414657205e-05, 9.4701768830418587e-05, 0.00010019908950198442, 0.00011586466280277818, 9.810776828089729e-05, 0.00015756548964418471, 0.00015230219287332147, 7.1860253228805959e-05, 0.0002791341976262629, 0.00025001456378959119, 0.00025657631340436637, 0.00011707948578987271, 0.00017713935812935233, 0.0001988225121749565, 0.0004481437208596617, 0.00032178798574022949, 0.00019576567865442485, 0.00015640708443243057, 0.00011462031397968531, 0.00015157379675656557, 0.00012801421689800918, 0.00025262087001465261, 0.00011626414197962731, 0.00042145515908487141, 6.4059662690851837e-05, 9.6733267128001899e-05, 0.00028895851573906839, 0.00063703634077683091, 6.9917630753479898e-05, 0.00037456804420799017, 0.00011582015577005222, 0.00016029775724746287, 0.00012270870502106845, 0.000232143938774243, 9.8470663942862302e-05, 0.00013747716729994863, 0.00032284529879689217, 7.0480011345352978e-05, 0.00011689083476085216, 0.00023776860325597227, 0.00022540640202350914, 0.00012659005005843937, 0.00014095140795689076, 0.0001422551431460306, 9.5096613222267479e-05, 0.00019757900736294687, 0.00058109650854021311, 0.00016129965661093593, 0.0001122214671340771, 0.00019221733964513987, 7.2550828917883337e-05, 0.00024440034758299589, 0.00012822652934119105, 0.00020498954108916223, 0.00033817643998190761, 8.4701990999747068e-05, 0.0001037831898429431, 5.7841811212711036e-05, 0.00018194857693742961, 0.00019584473920986056, 0.00015427677135448903, 0.00012331777543295175, 0.0002000306558329612, 5.8205070672556758e-05, 0.00013178873632568866, 5.1798553613480181e-05, 0.00030949522624723613, 0.00019634602358564734, 0.00010450246918480843, 0.00032389088300988078, 3.9254871808225289e-05, 0.00013967184349894524, 6.9893867475911975e-05, 0.00028474003192968667, 0.00023698623408563435, } };
const TfLiteAffineQuantization quant10 = { (TfLiteFloatArray*)&quant10_scale, (TfLiteIntArray*)&g0::quant6_zero, 0 };
const MODEL_SECTION(EI_MODEL_SECTION) ALIGN(16) int8_t tensor_data11[1*3*3*96] = { 
  /* [0][0][][] */ -46,-71,-10,127,22,71,76,-59,-15,-18,-15,-4,-29,0,37,2,-9,-44,27,22,19,-127,127,5,-84,7,50,-28,-124,-127,38,24,12,27,60,-17,-29,-10,29,-8,-13,27,-107,69,25,-66,37,46,-18,53,-25,19,3,-5,15,47,-89,-49,-61,-19,-11,-1,11,37,67,-24,74,13,-9,16,19,127,23,22,27,-2,-11,17,127,-6,-14,14,-27,20,125,21,-78,-16,0,-32,-15,-39,1,-26,-15,25, 127,-127,75,106,-43,127,39,-119,69,4,-17,127,127,-98,-13,15,10,127,127,-112,127,-76,80,67,-127,-116,-65,-35,-54,46,-59,-21,-90,53,-127,-83,-42,-14,-53,62,-1,127,127,81,-52,-112,-114,-51,-15,-127,42,85,67,-31,45,82,-47,42,-79,-114,-44,-42,-61,67,73,-61,27,29,-81,32,-17,89,117,127,14,19,1,58,-33,52,65,127,127,-23,-8,74,-113,127,-122,-101,4,-127,-90,-127,-38,105, -73,-13,29,-82,15,-25,65,-8,80,-34,-28,19,-19,-5,-8,-13,-9,-17,8,-3,-22,-104,28,-3,-124,98,9,-55,118,49,-15,9,1,14,13,-29,-8,34,18,12,25,13,-118,64,18,-17,37,13,-14,12,-16,4,-10,2,-2,21,-65,6,-32,51,2,40,33,-1,-7,-38,-32,23,9,3,-3,36,9,-26,-5,3,-12,-6,-85,1,-21,-24,-17,3,-109,10,-34,-23,-51,25,-25,-31,28,-26,-14,1, 
  /* [0][1][][] */ -64,-74,74,-35,-48,92,19,127,-52,-21,0,-119,26,-114,78,31,-3,-61,-17,89,54,-72,47,48,-96,-11,127,-23,-24,64,121,-103,-127,89,-86,-55,-36,31,-30,96,-49,-25,-5,46,-48,127,-23,66,16,97,20,-2,14,-54,26,32,127,122,-70,-85,127,-34,-36,127,71,-38,-15,-2,127,38,127,96,-41,103,-6,13,15,13,-30,9,-43,123,-80,110,1,35,-57,31,80,-127,-31,-6,127,-70,-22,0, 66,124,56,-113,127,83,88,38,-127,127,127,-38,-66,-127,-127,127,127,-64,-123,-51,104,92,-123,127,-107,-90,-43,127,-127,109,-127,-127,-88,127,106,127,127,-127,-105,127,-66,-96,110,-127,-127,-34,-127,-127,127,-113,85,42,127,127,127,-127,100,-127,-127,127,19,-79,-127,-99,-127,127,-127,127,-126,-127,-106,-81,-127,-80,127,127,-127,127,-78,127,127,31,-41,-127,59,127,92,45,127,12,127,3,-67,36,127,-127, -54,-13,-51,37,-56,-97,35,-26,19,-33,-29,95,2,91,14,9,-5,64,-7,127,2,-88,-42,6,-72,106,-71,-20,-71,-17,16,-63,-71,38,5,-17,-28,45,-68,42,127,-4,-39,30,-41,-57,17,45,9,120,-11,6,-38,-71,4,20,96,2,1,21,-34,127,91,-51,-43,12,37,-11,-77,121,-18,-84,-1,-55,-17,-21,27,15,76,-37,-70,-42,56,15,-48,-16,74,23,14,63,-42,21,-43,97,-26,-5, 
  /* [0][2][][] */ -67,1,-3,-21,13,-46,66,25,54,-28,-36,-3,19,19,-27,2,-7,66,8,1,-55,-81,2,-10,-28,-54,34,-69,91,39,25,26,16,-9,-11,-47,-6,35,-4,0,-15,-6,-67,106,3,31,11,36,-15,-31,10,-20,21,0,8,16,-70,24,-14,14,15,1,-21,-5,-1,-46,-47,14,-33,13,26,30,13,-19,25,5,17,5,-78,-13,-8,-8,17,15,-127,6,11,-44,-59,-50,-27,-47,9,57,-18,-8, 121,34,-127,-36,-72,-26,37,30,-65,-29,-20,-109,-78,111,-13,37,2,-51,-8,-127,92,-51,-39,1,-111,127,-51,20,-33,-21,-9,-4,-62,15,28,5,-22,-29,127,51,12,-14,69,-33,-40,75,-69,-44,-33,-6,-127,-127,-51,-25,1,39,-66,-7,12,38,-8,-17,10,-48,-54,33,64,-22,114,108,-23,-68,11,-59,1,5,100,4,51,23,12,-96,-49,3,3,7,127,39,-61,39,-18,-107,40,80,-9,26, -53,13,-18,26,15,-68,-127,1,-12,-8,-16,4,16,-26,19,-2,-9,-16,6,17,-50,-70,13,1,17,-94,20,3,-47,-40,-7,16,43,-20,-7,-25,-35,4,41,-42,23,-2,-48,-33,2,66,22,16,-9,-5,9,-9,17,6,-5,-4,-62,-13,2,-38,-11,11,84,-11,34,-2,-1,27,0,6,-3,21,-18,15,-1,15,36,0,74,-13,3,-8,-7,-17,73,0,43,-39,59,39,-16,-54,-8,2,-14,-15, 
};
const TfArray<4, int> tensor_dimension11 = { 4, { 1,3,3,96 } };
const TfArray<96, float> quant11_scale = { 96, { 0.0055281911045312881, 0.0033937343396246433, 0.0042662681080400944, 0.0054077818058431149, 0.0058664069510996342, 0.0048729740083217621, 0.0030633942224085331, 0.0026839745696634054, 0.0069618537090718746, 0.005696458276361227, 0.0096405521035194397, 0.0042327460832893848, 0.0089611848816275597, 0.0074593387544155121, 0.013448262587189674, 0.0076603945344686508, 0.0097633944824337959, 0.0061451271176338196, 0.0047833300195634365, 0.0026678743306547403, 0.0038039432838559151, 0.00313602015376091, 0.0040248250588774681, 0.0042584612965583801, 0.0049242479726672173, 0.0041695800609886646, 0.0066965329460799694, 0.0064728427678346634, 0.0030540607403963804, 0.011863203719258308, 0.010625618509948254, 0.010904492810368538, 0.0049758781678974628, 0.0075284224003553391, 0.0084499567747116089, 0.019046107307076454, 0.013675988651812077, 0.0083200410008430481, 0.0066473009064793587, 0.0048713632859289646, 0.0064418865367770195, 0.0054406044073402882, 0.010736387223005295, 0.0049412259832024574, 0.017911843955516815, 0.0027225357480347157, 0.0041111637838184834, 0.012280737049877644, 0.027074044570326805, 0.0029714992269873619, 0.015919141471385956, 0.0049223564565181732, 0.006812654435634613, 0.0052151195704936981, 0.009866117499768734, 0.0041850032284855843, 0.0058427792973816395, 0.013720924966037273, 0.0029954004567116499, 0.0049678604118525982, 0.010105165652930737, 0.0095797721296548843, 0.0053800768218934536, 0.0059904349036514759, 0.0060458434745669365, 0.0040416060946881771, 0.0083971079438924789, 0.024696601554751396, 0.00685523496940732, 0.0047694123350083828, 0.0081692365929484367, 0.003083410207182169, 0.010387014597654343, 0.0054496275261044502, 0.0087120551615953445, 0.014372498728334904, 0.0035998346284031868, 0.0044107856228947639, 0.0024582769256085157, 0.0077328146435320377, 0.0083234012126922607, 0.0065567628480494022, 0.005241005215793848, 0.0085013024508953094, 0.0024737154599279165, 0.0056010209955275059, 0.0022014384157955647, 0.013153547421097755, 0.0083447061479091644, 0.0044413548894226551, 0.013765362091362476, 0.0016683320282027125, 0.0059360531158745289, 0.0029704892076551914, 0.012101450935006142, 0.01007191464304924, } };
const TfLiteAffineQuantization quant11 = { (TfLiteFloatArray*)&quant11_scale, (TfLiteIntArray*)&g0::quant6_zero, 3 };
const MODEL_SECTION(EI_MODEL_SECTION) ALIGN(16) int32_t tensor_data12[96] = { 2645, 9258, 18352, 30044, 14837, -4867, -2227, 7603, 32995, -6033, 15825, 6807, 11093, 14079, 41161, 1844, 3038, 13839, 23029, 7583, -281, 570, 17618, -1975, 8094, 19, 18519, 9080, 9849, 74377, 66238, 13740, 12148, -1131, 13428, 3600, 2096, 5196, 22317, -1120, 15523, 9984, 39587, -4919, 40328, 11298, 9718, 25375, 68200, 9658, -1090, 11614, -4246, -438, -4348, 7066, -676, 19746, 8778, 14710, 9133, 21841, 13793, 7832, 15490, 10190, 6898, -11736, 8806, -4535, 6587, 16909, 29704, 8695, -5728, -5840, 9415, 469, 4135, -2155, 23298, 16851, 8848, 30998, 5279, 624, 18637, 88458, 15040, 15917, 7717, -368, 9983, 13845, 9637, 22477, };
const TfArray<96, float> quant12_scale = { 96, { 0.00015666025865357369, 0.00015818090469110757, 0.00010332054080208763, 7.736176485195756e-05, 0.00020146124006714672, 0.00020652951207011938, 0.00036515068495646119, 0.00021405989537015557, 7.1453607233706862e-05, 0.00022707202879246324, 0.0001705758913885802, 0.000131535081891343, 0.00011502740380819887, 0.00016486545791849494, 5.8025536418426782e-05, 0.00031501296325586736, 0.00015462833107449114, 9.0198780526407063e-05, 9.6383635536767542e-05, 0.00015861271822359413, 0.00021814354113303125, 0.00038392358692362905, 0.00011453560000518337, 0.00032937005744315684, 0.00032251660013571382, 0.0001486337132519111, 0.00012120955943828449, 0.00015507417265325785, 0.00016534468159079552, 4.7564793931087479e-05, 4.2892148485407233e-05, 0.00017965816368814558, 0.00013696914538741112, 0.00018043808813672513, 0.00015027129848022014, 0.00016109258285723627, 0.00024116280837915838, 0.00028694415232166648, 0.00012224605598021299, 0.00049123633652925491, 0.00012101569882361218, 0.00015570811228826642, 6.7937304265797138e-05, 0.00021750250016339123, 8.0942641943693161e-05, 0.00013504762318916619, 0.00017762769130058587, 0.00010614444181555882, 6.0644251789199188e-05, 0.00021614965226035565, 0.00011074607027694583, 0.00014773065049666911, 0.00024739315267652273, 0.00015497943968512118, 0.00023554888321086764, 0.00015734569751657546, 0.00014054219354875386, 9.5200062787625939e-05, 0.00023240082373376936, 0.00010131550516234711, 0.00017490067693870515, 6.4174251747317612e-05, 0.00010747144551714882, 0.00012643316586036235, 0.00016015215078368783, 0.00018803603597916663, 0.00018692089361138642, 0.00011435792112024501, 0.00019208395679015666, 0.00015475245891138911, 0.00016607821453362703, 9.4304094091057777e-05, 7.0516420237254351e-05, 0.00011701844050548971, 0.0002698526659514755, 0.00022883090423420072, 0.00017623127496335655, 0.00021678899065591395, 0.00018074276158586144, 0.00017692889377940446, 8.7328771769534796e-05, 9.8763244750443846e-05, 9.8749296739697456e-05, 6.2787497881799936e-05, 0.00022031785920262337, 0.00015842789434827864, 0.00012640439672395587, 4.3517557060113177e-05, 9.4511662609875202e-05, 0.00014150481729302555, 0.00016223776037804782, 0.00025475636357441545, 0.00014766618551220745, 0.00011482337868073955, 0.00011613541573751718, 7.5733471021521837e-05, } };
const TfLiteAffineQuantization quant12 = { (TfLiteFloatArray*)&quant12_scale, (TfLiteIntArray*)&g0::quant6_zero, 0 };
const MODEL_SECTION(EI_MODEL_SECTION) ALIGN(16) int8_t tensor_data13[96*1*1*16] = { 
  /* [0][0][][] */ 9,66,-18,69,25,34,4,-15,31,27,-48,92,2,-126,51,-127, 
  /* [1][0][][] */ 26,59,-11,-25,21,-36,127,-106,-1,85,-17,-23,0,-52,30,15, 
  /* [2][0][][] */ -127,38,-33,-17,6,1,61,115,-31,59,106,-17,-72,26,31,-51, 
  /* [3][0][][] */ -57,45,50,56,-40,64,60,127,6,55,-103,0,47,-59,-89,-60, 
  /* [4][0][][] */ 16,-6,32,70,-23,60,-6,41,3,-12,-6,-8,22,-7,-127,-22, 
  /* [5][0][][] */ -4,-38,68,-19,5,-27,-3,33,-77,106,-39,-127,-11,25,-61,-33, 
  /* [6][0][][] */ 12,-5,27,-13,35,53,-67,-75,-13,1,45,-17,127,-22,-18,-32, 
  /* [7][0][][] */ 25,16,127,-9,-16,-32,3,-4,-69,21,-87,-44,11,0,26,-8, 
  /* [8][0][][] */ 24,20,64,64,-47,75,20,46,32,2,2,-93,-29,0,-127,-79, 
  /* [9][0][][] */ 33,-108,65,38,23,-20,-6,28,127,4,69,5,-20,16,-116,-26, 
  /* [10][0][][] */ -26,-91,15,-33,-108,22,-7,67,122,127,64,-21,-47,72,91,-15, 
  /* [11][0][][] */ 41,-21,4,-107,18,-27,-110,-127,-68,35,-23,-39,34,-29,36,-59, 
  /* [12][0][][] */ -26,-5,18,-30,-27,-40,-97,-10,-34,-60,-16,17,32,127,78,34, 
  /* [13][0][][] */ -41,-115,-85,33,-17,-71,-8,-37,46,9,-14,-25,26,15,127,34, 
  /* [14][0][][] */ -9,-67,54,22,33,39,2,119,18,54,19,-43,23,47,-59,127, 
  /* [15][0][][] */ 25,-39,7,66,15,-6,106,4,8,-127,11,-37,3,-19,-10,-38, 
  /* [16][0][][] */ 33,-72,-48,23,18,2,41,-75,127,59,99,7,3,103,66,121, 
  /* [17][0][][] */ -73,-70,69,127,123,42,23,-26,111,-50,-18,-52,18,46,-101,39, 
  /* [18][0][][] */ -19,19,-2,24,-88,-2,-1,26,-52,-8,-7,-36,-3,-127,69,-8, 
  /* [19][0][][] */ 46,-64,37,-80,85,18,-111,83,85,-94,61,43,-7,66,43,127, 
  /* [20][0][][] */ 54,-26,78,-62,-7,8,-45,54,-13,-56,95,-19,14,17,-44,127, 
  /* [21][0][][] */ -65,-21,-7,-33,11,15,-85,-50,-24,53,-9,4,-127,-12,26,2, 
  /* [22][0][][] */ 19,-28,24,-23,11,-61,6,-13,-127,27,-13,-39,-15,-14,73,-16, 
  /* [23][0][][] */ 18,8,20,-5,3,12,-6,6,-4,-3,41,-9,127,-6,5,-41, 
  /* [24][0][][] */ -14,6,8,-68,-22,-26,40,7,-51,-1,-6,-127,5,-93,37,10, 
  /* [25][0][][] */ -118,11,-41,-15,63,-21,-79,-127,-28,46,-37,-43,-81,-83,14,-41, 
  /* [26][0][][] */ 27,-12,51,-102,127,-17,-8,-5,101,-48,40,-35,-19,84,2,62, 
  /* [27][0][][] */ 105,-25,23,-29,-37,-54,-6,-17,-26,16,-127,15,16,-13,3,39, 
  /* [28][0][][] */ -127,-18,-123,-82,63,-6,64,-68,-7,42,-66,15,33,-17,-42,51, 
  /* [29][0][][] */ -80,-30,-20,127,-23,15,15,-39,-25,3,-74,47,19,-95,39,-32, 
  /* [30][0][][] */ 51,-22,127,-30,75,55,-35,68,-48,-74,68,-52,-11,22,-77,87, 
  /* [31][0][][] */ 9,-95,-2,-48,-3,-61,18,-46,-19,44,106,17,-20,90,65,127, 
  /* [32][0][][] */ -10,79,-31,36,-127,26,-79,-44,-54,-39,-4,47,6,57,31,64, 
  /* [33][0][][] */ 29,-16,24,127,21,1,24,-49,-100,44,54,-21,1,-1,4,102, 
  /* [34][0][][] */ 27,-9,18,2,74,-33,-127,-10,-39,86,-38,4,-20,14,-1,5, 
  /* [35][0][][] */ 82,24,-19,-8,9,-127,-20,-9,-35,-3,-95,-12,71,12,-16,25, 
  /* [36][0][][] */ 18,-3,-127,4,45,18,-33,19,-30,-18,3,-11,-2,15,-18,7, 
  /* [37][0][][] */ 9,7,127,-8,-60,18,19,-52,-4,20,-39,24,19,0,23,-1, 
  /* [38][0][][] */ -117,24,-9,22,22,69,3,-17,2,-28,127,-35,-25,16,-23,-27, 
  /* [39][0][][] */ -17,-9,14,36,30,-15,-127,40,9,26,-5,-38,1,-22,-3,-2, 
  /* [40][0][][] */ 7,73,-16,127,11,37,61,46,-65,-43,-36,61,31,51,-50,-25, 
  /* [41][0][][] */ 9,18,-44,-25,-51,-7,127,81,-52,86,-21,2,-4,54,42,-9, 
  /* [42][0][][] */ 23,-56,-44,-17,24,7,-54,63,75,-84,127,53,-10,42,-56,50, 
  /* [43][0][][] */ -67,4,20,-32,29,13,-73,-72,-23,40,5,-12,-127,-9,35,-9, 
  /* [44][0][][] */ 11,1,-21,-10,-5,-13,-5,-49,127,-8,19,39,25,83,-2,48, 
  /* [45][0][][] */ -53,-70,-1,-100,23,-3,-25,37,5,-81,-12,-19,14,105,-34,127, 
  /* [46][0][][] */ -41,26,-26,88,-80,-22,5,-71,-127,34,-45,-18,-1,35,-6,-34, 
  /* [47][0][][] */ -18,-13,-86,127,-4,52,5,-13,14,50,48,55,-26,-16,22,-29, 
  /* [48][0][][] */ -7,4,26,-127,25,-31,-19,-11,-45,5,19,-20,-14,59,92,43, 
  /* [49][0][][] */ -19,11,40,127,-13,48,-47,-5,6,-40,-84,-49,-20,-58,-80,-110, 
  /* [50][0][][] */ 12,59,37,-117,79,22,-28,49,127,-23,-46,4,13,-52,11,-32, 
  /* [51][0][][] */ 7,-22,17,-2,47,-7,-62,-127,11,-67,-3,-2,-21,-19,-10,-14, 
  /* [52][0][][] */ 30,13,-12,37,36,-25,-76,110,-96,127,-52,-49,92,104,0,-40, 
  /* [53][0][][] */ -17,82,-3,-93,-36,1,21,-29,-69,-40,-38,39,18,-127,-90,1, 
  /* [54][0][][] */ -4,7,15,34,49,-27,8,-39,-6,30,-15,-18,-10,127,-42,-11, 
  /* [55][0][][] */ -118,127,95,-23,52,-4,-11,1,-40,21,98,-5,-15,-18,105,-4, 
  /* [56][0][][] */ 55,-3,13,-127,89,-7,-15,33,49,-58,56,123,-29,6,103,48, 
  /* [57][0][][] */ -30,-2,11,60,-24,21,43,127,-6,0,9,-24,1,47,11,21, 
  /* [58][0][][] */ 14,127,-10,-123,-1,35,-7,15,98,-3,2,81,9,-93,42,62, 
  /* [59][0][][] */ 35,54,42,-98,-49,-8,37,-2,9,24,21,-58,-14,-127,-68,18, 
  /* [60][0][][] */ 51,-13,116,-46,-36,127,30,-35,-14,33,-59,-7,27,8,26,-5, 
  /* [61][0][][] */ -36,21,-56,-43,-71,4,127,123,-30,86,-13,2,17,68,18,-35, 
  /* [62][0][][] */ 1,9,-1,-16,-101,30,-63,27,-22,-41,3,-63,22,-127,103,7, 
  /* [63][0][][] */ 19,-38,-3,-96,44,5,-127,-125,-62,94,-29,4,51,9,16,-33, 
  /* [64][0][][] */ -31,-6,26,41,68,3,-37,-127,22,-111,-6,-40,-11,-24,0,11, 
  /* [65][0][][] */ -127,11,25,-69,12,73,45,-54,-82,27,45,-16,4,13,-19,-24, 
  /* [66][0][][] */ 56,-1,76,14,-61,16,-29,45,-58,0,72,-95,-30,48,-127,-33, 
  /* [67][0][][] */ 41,-32,-36,73,60,-58,-92,-113,53,-127,-83,-38,-101,19,-91,28, 
  /* [68][0][][] */ 6,-38,-76,58,-47,-101,8,-59,-43,-4,37,-82,-33,58,127,-28, 
  /* [69][0][][] */ -27,43,-79,44,-22,-127,29,77,18,2,45,-15,125,23,-6,8, 
  /* [70][0][][] */ 19,17,-38,-48,-54,5,127,90,-25,54,-22,5,21,47,17,-1, 
  /* [71][0][][] */ 13,-9,-21,-47,25,-2,6,57,-26,-42,0,1,11,-127,74,3, 
  /* [72][0][][] */ 41,32,-15,35,25,-46,-39,-127,13,72,-59,15,49,53,50,58, 
  /* [73][0][][] */ -40,-127,-34,-70,-84,-14,29,-32,-29,3,-44,-45,16,-52,68,-8, 
  /* [74][0][][] */ -22,23,54,92,-13,-1,-127,94,16,-41,-45,-46,1,-17,-19,6, 
  /* [75][0][][] */ -51,31,-29,13,-21,78,93,127,3,55,12,-25,-102,69,24,14, 
  /* [76][0][][] */ 6,-14,-45,-16,54,-69,-127,-127,-14,-17,17,-1,38,-11,84,-38, 
  /* [77][0][][] */ -35,15,-34,-21,-44,-10,-12,-43,127,0,-61,12,-13,46,27,-80, 
  /* [78][0][][] */ -100,-127,-5,99,78,74,-41,36,4,-70,-117,83,45,-17,89,61, 
  /* [79][0][][] */ 35,-6,23,-60,127,0,51,14,79,27,11,30,-9,-27,13,-35, 
  /* [80][0][][] */ -7,-34,64,-96,-13,-35,-3,9,-75,-33,-21,-56,-7,127,-48,12, 
  /* [81][0][][] */ 21,-12,50,41,15,55,-13,-12,9,-6,-5,-35,-2,39,-127,13, 
  /* [82][0][][] */ -91,-15,21,-112,6,-34,7,-49,-27,-24,-31,-118,-31,-127,-92,37, 
  /* [83][0][][] */ 5,18,-25,-69,-52,9,-2,35,-66,-5,14,-79,24,-127,12,44, 
  /* [84][0][][] */ 127,40,23,53,-47,6,-55,24,-6,-26,110,7,-74,21,83,-78, 
  /* [85][0][][] */ -12,-29,12,-29,40,-15,-43,121,-98,-123,-81,-45,-15,84,84,-127, 
  /* [86][0][][] */ 26,-10,17,8,-67,54,-34,55,-85,-42,43,-27,-5,-127,-7,21, 
  /* [87][0][][] */ 127,-44,11,3,-47,-43,5,-10,-4,21,-127,15,33,-12,-10,50, 
  /* [88][0][][] */ 49,82,-13,-2,-16,-19,-23,-14,82,23,23,29,-27,-36,127,-97, 
  /* [89][0][][] */ 50,76,-90,-24,-35,-25,35,-68,49,53,22,-31,-43,-4,-19,-127, 
  /* [90][0][][] */ -17,-43,-6,-84,-83,23,127,-72,86,-77,9,-97,52,-29,-52,-15, 
  /* [91][0][][] */ 21,-3,-22,-113,-54,1,36,-33,-51,27,62,50,21,-19,44,127, 
  /* [92][0][][] */ 23,-3,12,20,49,-18,-82,-127,34,-62,-11,-36,-31,-10,-11,-26, 
  /* [93][0][][] */ 67,0,32,-127,-45,-7,-21,44,45,-72,82,-26,-34,106,-30,26, 
  /* [94][0][][] */ -121,41,-107,9,67,-127,-22,-1,-16,-60,88,-42,0,-7,-27,9, 
  /* [95][0][][] */ -22,60,21,-127,-12,-9,-20,4,15,-24,-53,-82,0,21,-56,2, 
};
const TfArray<96, float> quant13_scale = { 96, { 0.00071569299325346947, 0.00072263996116816998, 0.00047201369307003915, 0.00035342259798198938, 0.00092036358546465635, 0.00094351771986111999, 0.0016681690467521548, 0.00097791978623718023, 0.00032643153099343181, 0.001037364942021668, 0.00077926577068865299, 0.00060091016348451376, 0.00052549579413607717, 0.0007531779701821506, 0.00026508618611842394, 0.0014391178265213966, 0.00070641026832163334, 0.00041206771857105196, 0.00044032285222783685, 0.00072461273521184921, 0.00099657569080591202, 0.0017539319815114141, 0.00052324903663247824, 0.00150470738299191, 0.0014733978314325213, 0.00067902420414611697, 0.00055373861687257886, 0.00070844707079231739, 0.00075536727672442794, 0.00021729691070504487, 0.00019595021149143577, 0.00082075753016397357, 0.00062573532341048121, 0.00082432059571146965, 0.00068650540197268128, 0.0007359418086707592, 0.001101737841963768, 0.0013108871644362807, 0.00055847381008788943, 0.0022441837936639786, 0.00055285298731178045, 0.00071134319296106696, 0.0003103674971498549, 0.00099364714697003365, 0.00036978159914724529, 0.00061695696786046028, 0.00081148144090548158, 0.00048491451889276505, 0.00027704963576979935, 0.0009874667739495635, 0.00050593679770827293, 0.00067489861976355314, 0.0011302008060738444, 0.00070801429683342576, 0.0010760909644886851, 0.00071882439078763127, 0.00064205861417576671, 0.00043491579708643258, 0.0010617092484608293, 0.0004628538154065609, 0.00079902325524017215, 0.00029317621374502778, 0.00049097684677690268, 0.00057760236086323857, 0.00073164550121873617, 0.00085903133731335402, 0.00085393688641488552, 0.00052243733080103993, 0.00087752408580854535, 0.00070697732735425234, 0.00075871840817853808, 0.00043082260526716709, 0.00032215003739111125, 0.00053459173068404198, 0.00123280577827245, 0.0010454002767801285, 0.00080510205589234829, 0.00099038751795887947, 0.0008257125155068934, 0.00080828904174268246, 0.00039895626832731068, 0.00045119397691451013, 0.00045113023952580988, 0.00028684092103503644, 0.0010065089445561171, 0.00072376831667497754, 0.00057747092796489596, 0.00019880734907928854, 0.00043177086627110839, 0.00064645626116544008, 0.00074117351323366165, 0.0011638391297310591, 0.00067460414720699191, 0.00052456371486186981, 0.00053055770695209503, 0.00034598383354023099, } };
const TfLiteAffineQuantization quant13 = { (TfLiteFloatArray*)&quant13_scale, (TfLiteIntArray*)&g0::quant6_zero, 0 };
const MODEL_SECTION(EI_MODEL_SECTION) ALIGN(16) int32_t tensor_data14[16] = { -4977, -5912, -9430, 35493, 25491, 4307, -7336, -2976, 21017, 4050, 26352, 22951, -9393, 13710, 32223, -29172, };
const TfArray<16, float> quant14_scale = { 16, { 0.00048008965677581728, 0.00026135527878068388, 0.00024274259340018034, 0.00022936199093237519, 0.00036364243715070188, 0.00031927562667988241, 0.00035691887023858726, 0.00037819880526512861, 0.0002575236139819026, 0.00019695592345669866, 0.0003732801997102797, 0.00069919961970299482, 0.00038651056820526719, 0.00049803155707195401, 0.00052836904069408774, 0.00029706678469665349, } };
const TfLiteAffineQuantization quant14 = { (TfLiteFloatArray*)&quant14_scale, (TfLiteIntArray*)&g0::quant8_zero, 0 };
const MODEL_SECTION(EI_MODEL_SECTION) ALIGN(16) int8_t tensor_data15[16*1*1*96] = { 
  /* [0][0][][] */ 2,21,-5,23,47,66,-37,-24,40,5,10,9,-6,17,27,69,4,-4,-11,-11,90,-51,4,-10,-20,-32,-37,-95,-10,-4,45,43,113,-4,8,-2,5,-20,-15,12,-32,10,23,-31,5,-27,-16,28,-16,14,-2,-6,-37,-15,8,-4,34,17,-18,-27,-61,27,-10,-12,9,12,50,4,15,8,-2,-29,-64,-9,2,5,-7,-82,6,-13,42,-21,-53,-38,30,-13,6,20,-9,8,20,-30,26,20,-12,127, 
  /* [1][0][][] */ 66,-96,42,83,-21,-64,-21,-48,-17,-82,2,17,5,-65,-28,-57,-87,-7,22,26,-28,-103,-33,17,127,-57,-70,16,-33,96,-17,49,12,18,-47,17,-15,-3,41,-29,9,-80,77,-26,-46,12,52,-5,42,18,-7,-63,68,-68,29,-26,13,33,-25,-108,37,-61,16,-50,12,-73,25,45,37,41,-39,-4,-87,32,-28,54,31,89,23,-26,32,12,-66,30,-84,69,-3,62,-48,10,18,13,4,-36,30,-2, 
  /* [2][0][][] */ 26,14,7,-32,6,-1,-7,36,63,-11,8,76,-1,3,46,4,-17,-16,13,-4,-17,-69,8,-53,-5,-20,-29,29,-8,19,127,-59,22,-77,-25,62,20,126,-45,-23,0,-15,-8,39,-55,-56,-60,17,31,33,-30,-30,28,0,-8,-33,-25,-1,-4,33,6,11,81,99,4,-86,16,-77,-15,-18,-11,13,-15,9,-24,15,13,56,6,16,16,89,26,-16,-18,4,9,8,31,1,-5,-60,-48,1,-1,64, 
  /* [3][0][][] */ -14,-20,-36,33,24,-28,-3,-26,-22,15,-3,3,4,-16,41,-7,42,-42,23,9,-16,-14,-9,4,-22,7,3,-3,27,-51,63,-16,10,-18,-15,46,-9,-14,-14,9,8,-62,18,-28,-10,3,7,2,-127,41,-12,27,-117,-61,-23,-38,33,5,-16,59,-5,21,13,19,-22,-97,-38,22,54,14,3,30,-42,7,-11,-48,-51,-59,24,-40,12,-25,15,69,38,50,29,15,36,-10,-12,2,-32,-5,-12,-29, 
  /* [4][0][][] */ 5,-31,17,-70,3,-14,-46,11,-20,-50,-31,-8,10,76,9,10,53,-10,3,2,-10,36,49,9,1,2,23,6,2,-12,-10,-12,-32,8,3,22,31,-26,7,-11,9,3,-106,-34,34,-3,-12,-15,-1,87,-11,-22,-27,-24,9,-7,-9,-28,31,29,6,7,2,-12,32,-114,26,-18,-43,21,-21,-6,-17,22,-15,34,-23,71,50,5,16,2,127,-39,47,-24,-8,-8,65,12,3,23,-36,28,-9,-39, 
  /* [5][0][][] */ -2,5,-2,-5,-2,1,4,114,50,-20,-14,-22,-5,26,32,34,-12,-8,-5,-42,-51,-7,-10,-46,16,12,26,68,71,0,66,42,-43,12,5,-2,-52,-57,-25,-8,-40,-12,-8,-8,55,19,2,10,7,16,-21,11,-33,-19,4,-2,-22,-20,-1,31,-53,24,-22,-43,2,9,-18,10,1,21,3,-3,28,13,10,1,-1,31,4,121,1,-45,20,35,8,-8,18,-35,0,-17,23,-127,-29,-24,-2,-107, 
  /* [6][0][][] */ -21,-1,-11,-50,-5,-13,-18,19,-8,20,-13,-1,42,-63,10,-12,-1,-67,23,8,-2,8,-24,20,79,-6,-1,-5,20,-8,17,-14,-24,4,-19,2,16,5,19,39,-6,-32,-44,-23,-8,-17,21,-127,16,34,14,7,5,1,-4,-38,29,-11,-5,1,17,15,0,8,32,64,29,-16,-16,-7,7,-28,14,11,49,-3,-25,32,6,3,-13,-10,52,-26,2,46,16,-24,19,11,-39,-5,-17,13,-4,18, 
  /* [7][0][][] */ 13,8,35,-28,-9,-2,-6,-29,-8,-9,-18,-18,-13,-97,24,4,-7,-38,-14,-6,14,-20,-34,-7,-25,-15,-4,-14,12,7,7,4,-16,5,-13,-22,5,-14,-33,22,9,-11,-23,34,-7,12,-13,84,1,22,-12,-23,-24,8,-5,-56,45,-4,-5,4,-2,6,-8,-4,-19,38,12,-32,-17,-10,8,44,-6,-14,-17,4,48,4,0,-23,3,-40,36,-4,-38,127,-4,2,-32,-25,-5,18,-27,-5,-2,2, 
  /* [8][0][][] */ -61,41,-51,4,51,-5,-13,30,12,67,-39,16,14,32,70,-13,-4,36,-77,15,13,30,-36,3,-35,-19,27,6,45,-86,-3,-9,32,3,18,-10,-23,28,-32,48,6,8,10,-127,-38,-5,39,-21,-54,21,-3,65,-107,65,20,-1,9,-19,-20,-22,-5,-40,3,18,-36,36,31,-20,-3,7,23,73,-23,36,46,43,-4,-85,-6,-38,-10,-16,23,7,-58,5,18,-48,-3,37,-21,10,34,-10,-12,-8, 
  /* [9][0][][] */ 28,-65,-30,-37,25,19,-15,16,27,-17,-7,15,-50,-20,7,26,-1,10,45,-26,-24,0,-22,-40,30,13,25,-10,-37,-39,-24,1,-9,8,16,31,8,41,-33,15,12,10,-17,-88,8,-6,33,-127,-40,-7,-3,33,-13,2,-14,2,-44,31,-9,21,12,10,17,33,24,119,38,42,16,-7,18,-20,-19,-2,-29,9,68,-9,18,17,-14,1,11,-43,-4,20,1,-2,-48,29,-33,5,3,5,10,-17, 
  /* [10][0][][] */ 25,54,-27,28,69,-123,-13,-30,9,58,35,-8,-10,25,21,-82,23,35,-28,45,-87,-5,-8,-26,-69,-22,-48,46,8,13,-3,39,-16,-13,30,-16,78,-22,-8,-7,-12,60,43,-20,-56,-17,-39,13,-23,-23,-37,1,-14,-9,11,-17,7,35,-20,-21,-6,1,-20,24,12,48,58,26,26,7,21,48,-50,-25,-62,-11,5,30,-15,10,36,-4,-74,-35,70,-50,100,-14,-26,16,22,-18,86,42,-11,-127, 
  /* [11][0][][] */ 45,36,-30,22,-2,10,56,2,-6,-17,-25,-7,-4,3,36,5,-5,-5,-96,-6,1,10,7,-5,-45,-20,-11,4,2,15,2,-5,-4,3,8,21,9,14,-2,19,0,28,54,-97,25,-34,8,-6,-127,9,11,-42,23,16,-13,12,-12,-13,8,6,13,-18,-4,8,-54,50,-18,11,19,1,25,12,-48,-27,16,31,-4,-36,-52,6,13,-5,85,44,7,-14,-11,-9,5,21,-16,-2,-5,4,-17,13, 
  /* [12][0][][] */ -30,-2,13,0,-22,36,18,5,127,9,-17,9,3,6,-41,-37,28,30,7,75,54,34,-13,-19,-1,13,17,-28,-108,5,27,-41,1,-8,-10,-23,17,-7,42,-6,-50,-20,-1,9,3,33,5,2,14,7,-44,17,3,-2,6,-8,77,-33,17,15,14,-11,15,-15,-8,28,-38,3,2,13,-14,-35,11,6,-67,10,32,-2,7,-64,-7,3,42,42,-16,-20,-28,-29,12,22,0,51,-10,-28,19,13, 
  /* [13][0][][] */ 31,-10,-26,25,33,-6,11,0,-10,1,5,0,10,-8,8,-10,18,-67,-34,10,-10,-19,8,7,8,8,0,-5,-10,-30,-7,17,0,3,5,45,14,-1,9,12,-5,9,20,38,19,18,-8,-127,18,-4,6,5,-18,-6,20,4,-13,15,25,10,5,16,-7,2,-14,-22,-16,-54,5,14,-8,-31,-16,38,-9,22,-27,2,14,0,26,-13,-14,17,16,22,12,17,-3,-3,21,-4,1,10,-10,-7, 
  /* [14][0][][] */ -119,-58,30,59,40,-28,-33,19,-21,7,-10,20,71,11,-127,-2,86,-14,-14,34,-17,-5,35,24,-110,3,40,-17,-48,-76,-30,-3,-2,-1,28,-72,27,41,6,28,17,30,-3,-40,22,124,70,62,-125,51,12,34,-59,-8,42,1,5,15,71,58,35,47,8,50,-5,-12,-44,50,13,88,-63,-91,-86,3,0,54,-4,50,92,2,65,17,37,33,52,14,55,32,27,48,76,-3,3,31,21,-24, 
  /* [15][0][][] */ 88,-29,47,0,-9,72,37,-28,-10,54,12,-2,-97,-8,-22,37,6,45,57,-10,18,20,-85,64,20,8,48,5,25,50,-67,-73,6,-46,41,-2,50,-37,-63,-114,-2,40,-1,47,6,55,-20,-32,115,-49,-46,32,52,-123,61,-115,-1,-70,18,26,-127,-3,12,20,92,-27,-62,43,-39,71,-21,24,53,23,12,-5,20,-62,73,-14,-20,2,41,76,-19,-2,4,-49,9,-12,66,1,-76,55,30,-16, 
};
const TfArray<16, float> quant15_scale = { 16, { 0.02040380984544754, 0.01110759936273098, 0.010316560044884682, 0.0097478842362761497, 0.015454802662134171, 0.013569213449954987, 0.015169051475822926, 0.016073448583483696, 0.010944753885269165, 0.0083706267178058624, 0.015864407643675804, 0.02971598319709301, 0.016426699236035347, 0.021166341379284859, 0.022455682978034019, 0.012625338509678841, } };
const TfLiteAffineQuantization quant15 = { (TfLiteFloatArray*)&quant15_scale, (TfLiteIntArray*)&g0::quant8_zero, 0 };
const MODEL_SECTION(EI_MODEL_SECTION) ALIGN(16) int32_t tensor_data16[96] = { 8244, -9603, 645, 46341, -185, -2536, -14664, 354, -2511, 2879, 3155, -2081, 1559, -20466, 6937, -3708, 283, 14967, 19696, 3023, -650, -3181, -2142, -1529, 20768, -5011, 1827, -1393, -5671, -7567, 11688, -10124, -499, -370, 397, 24917, 3590, -2781, 15729, 1971, 814, 2754, -10830, -6694, -10740, 55111, 2500, 20419, 38676, -11600, 813, 12171, 11526, -1429, -9179, 3542, -12630, 3056, 3287, -7533, -550, -1191, -7064, -1892, 57, 16512, 26683, 35009, -14140, 342, -10334, -677, 34672, 4905, 1064, 1409, 18072, 26617, 2244, -5747, -2788, -4941, -92, -3390, 213, 2956, 1980, 2115, 3194, -3214, -242, 71, 0, 1789, 1037, 58299, };
const TfArray<96, float> quant16_scale = { 96, { 0.00013695714005734771, 0.00012497074203565717, 0.00019597407663241029, 4.4203974539414048e-05, 0.00012428004993125796, 0.00015062332386150956, 0.0002454044297337532, 5.0851664127549157e-05, 0.00016889392281882465, 0.00034930292167700827, 0.0001397523155901581, 0.00026338704628869891, 7.1776135882828385e-05, 0.00028117370675317943, 0.00014766966341994703, 0.00021277106134220958, 8.4186314779799432e-05, 0.00027123786276206374, 8.7654458184260875e-05, 0.00022251406335271895, 6.5224514401052147e-05, 0.00012859070557169616, 7.9662342614028603e-05, 0.00034173991298303008, 0.00014234434638638049, 0.00018535194976720959, 0.00010962017404381186, 0.00014921138063073158, 0.00014495033246930689, 0.00010466486128279939, 0.00010469763947185129, 0.00013531526201404631, 9.52343107201159e-05, 0.00011087891471106559, 0.00018541194731369615, 9.385833254782483e-05, 0.00036327476846054196, 8.6079053289722651e-05, 6.6267544752918184e-05, 9.7729753179010004e-05, 0.00019023973436560482, 0.00024738177307881415, 0.00032870698487386107, 0.00020585888705682009, 0.00014465198910329491, 6.9791938585694879e-05, 0.00016807984502520412, 0.00014782261860091239, 7.2356742748524994e-05, 0.00019833276746794581, 0.00015416354290209711, 9.5038361905608326e-05, 0.0002133843518095091, 0.0001542349491501227, 0.00017924909479916096, 0.000309240713249892, 0.00030418048845604062, 0.00016691448399797082, 8.3429418737068772e-05, 7.4716816016007215e-05, 0.00019429103122092783, 0.00011910118337254971, 0.00033577575231902301, 8.6344218289013952e-05, 0.00024943708558566868, 0.00015044452447909862, 8.7696527771186084e-05, 5.133274316904135e-05, 0.00026255100965499878, 0.00019314144446980208, 0.0001565401180414483, 8.3451508544385433e-05, 0.00016900687478482723, 0.0001278320123674348, 0.00015117319708224386, 0.00018239759083371609, 0.00067199207842350006, 4.0633542084833607e-05, 0.00023044054978527129, 0.00034131834399886429, 0.0001156075595645234, 0.00042903379653580487, 0.00016939172928687185, 0.00013811612734571099, 0.00011087572784163058, 0.00011994461237918586, 9.6629701147321612e-05, 0.00016882276395335793, 0.00013452474377118051, 9.1776448243763298e-05, 0.00014110693882685155, 9.3547081633005291e-05, 9.8469536169432104e-05, 0.00031476689036935568, 0.0012322521070018411, 5.6187676818808541e-05, } };
const TfLiteAffineQuantization quant16 = { (TfLiteFloatArray*)&quant16_scale, (TfLiteIntArray*)&g0::quant6_zero, 0 };
const MODEL_SECTION(EI_MODEL_SECTION) ALIGN(16) int8_t tensor_data17[1*3*3*96] = { 
  /* [0][0][][] */ -17,5,-20,105,-17,23,-63,-53,18,-6,100,-9,4,-7,-5,54,5,17,-34,3,74,2,31,-33,3,17,43,49,21,13,23,48,-8,27,10,-14,5,48,-60,-26,20,9,27,17,-86,-57,25,-4,-11,-20,-8,-7,48,5,-8,2,-2,-35,28,-31,27,-3,127,27,-13,-11,12,-53,67,35,3,-7,78,-32,68,4,17,-127,29,65,1,14,127,-14,37,29,-29,-19,34,-7,-14,82,2,20,-2,12, -48,12,-8,10,51,-8,-10,-127,39,13,-127,-5,-16,-12,4,91,17,-29,-14,-15,76,-95,127,26,-61,-31,-104,-16,27,35,-49,17,118,11,-13,-1,-24,127,-65,-127,9,-18,-30,14,46,-127,127,-44,-77,49,49,7,38,-63,32,56,37,42,-102,84,127,33,3,-20,44,-38,-96,-2,37,-30,-18,46,-48,-48,105,-4,-29,-61,-34,65,-67,61,-15,8,-10,48,54,-40,-27,53,-13,73,-127,-31,23,-127, 1,-4,-23,-75,7,18,38,21,-3,-2,5,62,0,-13,-11,6,-13,17,-15,16,6,25,23,-33,1,-31,9,12,-7,6,45,-80,43,17,9,-22,12,4,-32,-21,8,2,-15,7,22,-33,20,1,7,-8,5,-5,5,5,-5,8,-7,45,7,-2,11,-19,3,-17,-26,-17,30,-51,-106,-7,41,-18,-127,-22,-12,17,11,-12,5,12,-13,22,-36,-3,-41,21,25,36,-25,-17,24,-12,19,7,-2,-45, 
  /* [0][1][][] */ -40,60,-17,38,-84,-16,-11,-45,26,95,-44,-21,-30,-24,-7,62,127,-23,-90,-13,57,-127,-29,16,-35,-48,-127,-5,37,37,-50,27,-127,-76,-58,3,66,-3,-49,46,-19,86,1,-4,35,-52,-13,-31,127,44,-4,21,44,9,-37,-18,31,10,-126,127,-36,-89,20,127,-59,-36,-84,127,-36,127,-18,53,-35,-55,37,8,-35,-69,127,48,127,34,5,0,127,29,-96,47,-38,-36,-102,40,98,103,28,-59, 127,127,127,127,-45,-127,127,23,127,-127,15,-127,-106,127,127,127,-15,-127,-61,-127,127,23,-68,127,127,127,-54,-127,127,127,-127,127,-9,-127,-124,127,-127,-43,94,110,-127,-127,127,127,127,-116,-107,127,-14,127,-127,-127,-127,127,127,-127,127,-127,-44,41,-104,-28,-70,-68,127,127,-73,127,127,-107,-127,127,-42,127,-127,-127,-127,124,-75,127,-44,127,79,127,-37,-127,-26,-106,-127,-126,-23,-127,-22,-127,-127,116, -23,67,-38,2,127,69,-21,48,6,23,-12,-5,-26,-31,-13,-7,-105,-21,-127,39,30,77,-13,-116,-33,-41,124,72,10,36,72,8,125,-48,127,-3,55,5,-93,13,36,23,-23,0,-24,-53,-13,-42,81,14,-12,40,-5,-4,-76,-14,25,20,127,-90,2,127,1,-36,-110,-28,-76,99,14,-17,111,25,-18,-56,11,47,-29,-7,-44,-3,-46,8,47,24,-90,35,127,-47,32,-22,127,-10,-114,35,33,20, 
  /* [0][2][][] */ -4,-39,-20,-61,-4,13,40,31,-2,9,-20,53,24,-34,-8,6,41,3,14,21,-10,29,-17,-25,2,-24,8,3,-9,-7,49,-76,-39,67,-29,-25,31,-35,-61,17,8,9,-34,21,12,-78,-12,-1,-10,5,16,-7,8,1,-23,5,-2,44,-49,34,-6,-13,5,16,-5,-10,23,-54,-57,12,-20,-12,-119,-32,0,18,15,-11,56,17,23,21,-41,16,11,25,-20,10,4,24,23,-6,20,40,-7,-30, -28,-11,-26,24,-44,73,-25,65,5,-6,54,-11,127,-7,-18,-17,-1,-39,-55,24,-23,79,-46,-112,-47,-48,100,69,13,43,53,-1,-122,63,-14,-23,-29,-26,-127,-3,44,-14,-15,38,-27,-43,-18,-47,-61,27,68,24,-11,-80,29,51,16,26,76,-56,20,-58,-8,1,19,-26,-127,-56,-12,-26,-62,22,36,-47,-30,-7,-44,24,-56,1,49,34,19,10,5,62,-91,127,15,127,-30,-19,114,-22,46,83, -9,-33,-25,29,13,65,-44,13,3,-7,1,15,11,-50,-10,-13,-44,-6,17,19,-24,5,-21,4,-4,19,-3,51,-2,-5,33,29,17,42,19,-22,-6,-26,-28,8,10,-12,21,10,-74,-32,-13,4,-2,-16,-1,-4,-8,8,-17,-5,-2,-49,13,-29,-21,49,9,-29,-10,-2,35,-56,45,7,51,-21,31,-55,-17,22,11,11,-6,22,-30,31,89,-14,-18,54,39,-9,108,11,3,-19,10,-23,-7,-50, 
};
const TfArray<96, float> quant17_scale = { 96, { 0.0058206780813634396, 0.0053112562745809555, 0.0083288978785276413, 0.0018786689033731818, 0.0052819019183516502, 0.0064014908857643604, 0.010429687798023224, 0.0021611957345157862, 0.0071779917925596237, 0.014845374040305614, 0.0059394733980298042, 0.011193949729204178, 0.0030504858586937189, 0.011949882842600346, 0.0062759607098996639, 0.0090427696704864502, 0.003577918279916048, 0.011527609080076218, 0.0037253142800182104, 0.0094568477943539619, 0.002772041829302907, 0.0054651047103106976, 0.0033856495283544064, 0.014523945748806, 0.0060496348887681961, 0.0078774578869342804, 0.0046588573604822159, 0.0063414834439754486, 0.0061603891663253307, 0.0044482564553618431, 0.0044496497139334679, 0.0057508982717990875, 0.0040474580600857735, 0.0047123539261519909, 0.0078800078481435776, 0.0039889789186418056, 0.015439176931977272, 0.0036583596374839544, 0.0028163704555481672, 0.0041535142809152603, 0.0080851884558796883, 0.010513724759221077, 0.013970046304166317, 0.0087490025907754898, 0.0061477096751332283, 0.0029661573935300112, 0.0071433931589126587, 0.0062824608758091927, 0.0030751614831387997, 0.0084291426464915276, 0.0065519507043063641, 0.0040391301736235619, 0.0090688345953822136, 0.0065549854189157486, 0.0076180864125490189, 0.013142730109393597, 0.012927670031785965, 0.0070938654243946075, 0.0035457501653581858, 0.003175464691594243, 0.0082573685795068741, 0.0050618001259863377, 0.014270469546318054, 0.003669629106298089, 0.010601075366139412, 0.0063938922248780727, 0.0037271024193614721, 0.0021816415246576071, 0.011158417910337448, 0.0082085113972425461, 0.0066529549658298492, 0.0035466889385133982, 0.0071827922947704792, 0.0054328604601323605, 0.0064248605631291866, 0.0077518974430859089, 0.028559662401676178, 0.0017269254894927144, 0.009793723002076149, 0.014506028965115547, 0.0049133212305605412, 0.018233936280012131, 0.0071991481818258762, 0.0058699352666735649, 0.0047122184187173843, 0.0050976458005607128, 0.0041067623533308506, 0.00717496732249856, 0.0057173012755811214, 0.0039004990831017494, 0.005997044499963522, 0.0039757508784532547, 0.0041849552653729916, 0.013377592898905277, 0.052370712161064148, 0.00238797627389431, } };
const TfLiteAffineQuantization quant17 = { (TfLiteFloatArray*)&quant17_scale, (TfLiteIntArray*)&g0::quant6_zero, 3 };
const MODEL_SECTION(EI_MODEL_SECTION) ALIGN(16) int32_t tensor_data18[96] = { 26044, 1682, 9612, -1131, 7112, 7387, 26438, 8601, -2109, 25464, 9865, 2335, 10188, 50996, -494, -3474, 13458, 15137, 2905, -297, -879, 21160, 6931, 4970, 10255, 9056, 6283, 6503, 73, 14, 8474, 14156, 22793, 2715, 10476, -648, 31172, 11218, 954, 6602, 1143, 18023, 20883, 6991, 5492, 17439, 26731, 8032, 7168, 5306, 382, -1088, 18353, 9008, 13690, 22622, -487, 12017, 4911, 5290, 19164, 10532, 5107, 9522, 8977, 6615, 10776, -1004, 29327, 10590, 13297, -1586, -2488, 4358, 2503, 5360, 38552, 19975, 22324, -2993, 11849, -9875, -3162, 1108, 9789, 7054, 9113, 5908, 18322, 6907, 11445, 5145, 18914, 29624, -13266, 18629, };
const TfArray<96, float> quant18_scale = { 96, { 9.9129254522267729e-05, 0.00019815679115708917, 0.00013902223145123571, 0.00048138736747205257, 0.00022455930593423545, 0.00012376962695270777, 0.00011882690159836784, 0.0004086510743945837, 0.00021120917517691851, 7.0459143898915499e-05, 0.00014425074914470315, 0.00035371925332583487, 0.00026931139291264117, 9.453489474253729e-05, 0.00023127600434236228, 0.00019781499577220529, 0.00016623138799332082, 0.00015378085663542151, 0.00015370835899375379, 0.00037208810681477189, 0.00029030712903477252, 0.00011756223830161616, 0.00021963778999634087, 0.00015907180204521865, 0.00017087397282011807, 0.00023175825481303036, 0.00022741757857147604, 0.00013811048120260239, 0.00045624078484252095, 0.00028225374990142882, 0.00016958673950284719, 0.00013404712080955505, 8.697833982296288e-05, 0.00039784886757843196, 0.00016072453581728041, 0.0004274717066437006, 7.2980474215000868e-05, 0.00023488599981646985, 0.00047039604396559298, 0.00014308284153230488, 0.00043234755867160857, 0.0001056703258655034, 0.00010234066576231271, 0.00010913590813288465, 0.00020742254855576903, 0.00018798558448906988, 0.0001068135243258439, 0.00017984467558562756, 0.00021998553711455315, 0.00016885927470866591, 0.00032249648938886821, 0.00061055918922647834, 0.00014471635222434998, 0.0001779121084837243, 0.00017088344611693174, 8.1701356975827366e-05, 0.00025396273122169077, 0.00014511216431856155, 0.00016368184878956527, 0.00030897374381311238, 8.8885783043224365e-05, 0.00013403015327639878, 0.0002078615507343784, 0.00029034796170890331, 0.00011838418868137524, 0.00017142205615527928, 0.000179738097358495, 0.00034455760032869875, 9.2199370556045324e-05, 0.00011097568494733423, 0.0001493707241024822, 0.00029315569554455578, 0.00015068303036969155, 0.00030104539473541081, 0.00017294703866355121, 0.00023539521498605609, 6.1103892221581191e-05, 0.00022452494886238128, 7.5283518526703119e-05, 0.00040752583299763501, 9.2932546976953745e-05, 0.0002117317053489387, 0.00011887271830346435, 0.00024349414161406457, 0.00016358285211026669, 0.00022240234829951078, 0.00017713109264150262, 0.00023342012718785554, 9.2989102995488793e-05, 0.00023283022164832801, 0.00012282002717256546, 0.00032546342117711902, 0.00011132457439089194, 9.318225784227252e-05, 0.00022066560632083565, 0.00017606736219022423, } };
const TfLiteAffineQuantization quant18 = { (TfLiteFloatArray*)&quant18_scale, (TfLiteIntArray*)&g0::quant6_zero, 0 };
const MODEL_SECTION(EI_MODEL_SECTION) ALIGN(16) int8_t tensor_data19[96*1*1*16] = { 
  /* [0][0][][] */ 54,-33,123,127,65,-35,40,-41,121,-4,-68,-83,23,82,-35,-100, 
  /* [1][0][][] */ 33,73,-15,-4,85,-12,14,25,45,80,-46,127,4,-36,98,-83, 
  /* [2][0][][] */ 39,-80,-9,-4,-79,35,-70,112,-96,-101,1,85,-6,-127,86,-100, 
  /* [3][0][][] */ 124,127,-9,35,-127,-10,-74,-34,3,-8,119,-72,-65,100,-54,-37, 
  /* [4][0][][] */ 3,-12,21,2,-29,34,-25,48,-75,-46,-11,-10,-3,-127,25,7, 
  /* [5][0][][] */ 120,-52,-20,11,-6,-127,-31,14,0,9,-116,-10,20,-5,-1,23, 
  /* [6][0][][] */ -127,-74,-19,102,-40,3,-48,15,-106,-81,-60,-25,13,53,2,84, 
  /* [7][0][][] */ -11,11,-69,44,33,-127,-27,45,14,-29,18,-13,2,23,-41,19, 
  /* [8][0][][] */ 26,-47,-4,-5,14,32,-52,-61,-6,14,-70,14,-127,1,6,18, 
  /* [9][0][][] */ 29,-58,53,127,-1,21,-10,-81,113,-85,-5,-28,-12,41,-57,17, 
  /* [10][0][][] */ -116,-73,-2,-39,118,62,61,60,126,-85,-111,40,80,-127,-106,90, 
  /* [11][0][][] */ 37,-18,-127,15,53,28,-21,36,-17,-35,-9,-7,-7,17,-47,5, 
  /* [12][0][][] */ 104,-51,-3,-5,-3,-61,-62,-35,31,1,-127,-27,-63,-24,4,60, 
  /* [13][0][][] */ 44,-75,27,-67,95,7,-103,-127,37,-63,13,7,21,-21,20,2, 
  /* [14][0][][] */ -51,28,-82,-40,84,-127,68,-56,65,54,-11,-94,24,113,-15,23, 
  /* [15][0][][] */ 23,-4,65,44,51,-39,-37,-13,23,-62,-68,-6,-127,-49,-17,49, 
  /* [16][0][][] */ -127,69,2,5,5,100,38,65,-14,24,114,6,-5,15,7,-42, 
  /* [17][0][][] */ -11,-3,-39,-35,-31,8,45,82,-20,127,-19,9,-5,84,66,-4, 
  /* [18][0][][] */ 2,127,-46,10,6,5,62,-72,22,124,-57,109,5,-52,44,-96, 
  /* [19][0][][] */ 10,-20,38,20,3,43,-3,19,12,9,-47,-9,-127,4,-14,30, 
  /* [20][0][][] */ 92,-52,-4,-83,-42,23,30,-79,-61,27,-127,-40,32,0,54,13, 
  /* [21][0][][] */ 44,-6,127,43,-22,48,22,4,5,28,-14,-10,-8,80,4,-9, 
  /* [22][0][][] */ 35,13,12,4,-21,-6,29,127,7,-4,4,32,-4,31,17,26, 
  /* [23][0][][] */ -23,22,-89,15,24,-127,6,37,5,-27,-7,-2,-68,7,-6,35, 
  /* [24][0][][] */ 40,-64,-1,-49,55,1,-31,-16,25,25,55,85,-49,73,127,32, 
  /* [25][0][][] */ -127,-85,-42,9,9,1,18,-32,-59,0,-71,17,12,32,26,51, 
  /* [26][0][][] */ 9,-8,39,4,-14,7,-39,54,-80,-54,-7,9,6,-127,34,-15, 
  /* [27][0][][] */ -99,39,-44,25,35,-23,-1,24,36,-32,127,25,-17,5,-14,-26, 
  /* [28][0][][] */ -16,-12,22,35,-2,1,15,86,29,20,-24,-4,-127,-9,-9,39, 
  /* [29][0][][] */ -7,55,33,-30,31,-17,17,-26,-127,30,-32,5,1,27,-84,16, 
  /* [30][0][][] */ -12,-8,-127,-35,25,-57,-7,14,-13,-17,-2,-21,-37,-22,13,13, 
  /* [31][0][][] */ 121,-29,-127,2,48,9,-55,53,-13,-15,-71,-57,4,-1,-92,26, 
  /* [32][0][][] */ -125,48,26,44,8,101,24,35,20,-4,127,7,-36,20,-16,-24, 
  /* [33][0][][] */ 12,-16,127,-24,-70,21,4,-35,-10,10,-12,21,-3,22,35,24, 
  /* [34][0][][] */ -13,-34,-60,-113,17,1,16,-33,-41,-60,-43,-127,-12,-8,59,20, 
  /* [35][0][][] */ 4,-34,36,56,53,-24,26,-20,-125,43,-15,33,-23,127,-41,-40, 
  /* [36][0][][] */ -121,52,-25,7,-25,44,64,111,1,44,127,-14,8,25,22,-37, 
  /* [37][0][][] */ -40,7,127,-28,-78,-60,32,-38,20,28,-3,9,-2,-66,68,7, 
  /* [38][0][][] */ 11,-20,-9,37,40,-46,-55,10,-14,-21,77,-4,127,28,-5,3, 
  /* [39][0][][] */ -36,-9,-1,-43,-48,-91,61,127,-31,-13,8,-54,12,62,70,60, 
  /* [40][0][][] */ 62,-9,-17,-6,-10,83,-9,7,11,3,20,5,127,6,-20,-22, 
  /* [41][0][][] */ -2,-12,-36,-127,24,-10,-36,-81,-14,-57,6,-44,-16,-26,-12,33, 
  /* [42][0][][] */ 54,49,-2,115,-127,-12,-102,-4,-90,-61,76,-91,-48,127,-54,21, 
  /* [43][0][][] */ 22,101,-29,127,15,19,34,-71,-46,74,-11,23,0,-45,38,35, 
  /* [44][0][][] */ -17,-25,-127,32,66,91,-43,59,-7,-26,43,-18,2,-28,-55,-7, 
  /* [45][0][][] */ 1,18,-17,-127,-25,-3,54,-11,-17,28,-36,18,7,-99,35,-28, 
  /* [46][0][][] */ 18,35,57,-24,8,8,-52,59,14,-53,-33,11,5,127,48,-11, 
  /* [47][0][][] */ 21,-25,20,-46,-42,14,-72,54,-17,-37,14,28,9,-127,40,17, 
  /* [48][0][][] */ 3,-10,3,-127,-10,-21,-5,6,14,-32,14,-16,7,48,-12,54, 
  /* [49][0][][] */ 32,-34,-2,115,92,14,3,53,-60,22,42,41,-10,41,127,-14, 
  /* [50][0][][] */ -24,-15,69,-31,4,113,-19,-64,29,-17,127,23,102,-11,-12,-54, 
  /* [51][0][][] */ 29,45,17,15,17,4,-48,21,49,0,-1,127,14,36,35,-60, 
  /* [52][0][][] */ -21,61,127,12,9,-41,21,-43,-22,17,10,35,4,85,-110,-22, 
  /* [53][0][][] */ -12,-12,-46,-127,-44,13,27,-41,-14,50,17,4,18,-31,55,8, 
  /* [54][0][][] */ 1,1,-27,-49,23,6,-18,9,59,-19,-2,-25,-13,127,14,25, 
  /* [55][0][][] */ 0,-39,-52,-19,3,-64,-9,-127,1,-96,-22,-5,-32,-89,-54,-7, 
  /* [56][0][][] */ 48,45,27,59,0,-26,13,127,18,-31,-2,-39,76,-18,-54,42, 
  /* [57][0][][] */ 79,-21,127,-15,-64,-41,8,-28,26,15,-89,32,50,-43,62,15, 
  /* [58][0][][] */ 121,109,10,120,-127,-24,-4,39,-17,18,90,-38,-92,-71,-16,-84, 
  /* [59][0][][] */ 114,-37,-4,-4,-16,-11,-4,12,-26,19,-127,-5,10,-10,-4,22, 
  /* [60][0][][] */ -127,41,-13,-4,3,17,29,30,5,17,93,6,-42,-6,9,-12, 
  /* [61][0][][] */ -115,83,14,32,23,18,-89,-75,127,-104,96,-6,39,-55,-96,-65, 
  /* [62][0][][] */ -29,-52,-127,73,79,115,-5,112,33,-60,48,-22,-75,5,-102,-22, 
  /* [63][0][][] */ -45,6,127,-38,-53,-53,23,-34,6,17,-3,10,-14,-50,77,14, 
  /* [64][0][][] */ 17,52,-23,24,63,2,75,-127,-21,99,13,-12,-24,-102,3,48, 
  /* [65][0][][] */ 2,29,11,-17,62,8,6,-127,-23,-52,-28,-47,-8,-45,40,14, 
  /* [66][0][][] */ -127,2,-23,11,-41,15,9,-46,-83,-40,-85,51,54,19,50,78, 
  /* [67][0][][] */ -9,-41,3,127,8,0,-25,32,66,24,13,-15,-8,-38,-81,-24, 
  /* [68][0][][] */ 5,5,-8,127,-53,-19,1,-29,-51,24,14,-31,-29,-68,-32,-45, 
  /* [69][0][][] */ 87,84,8,106,41,-12,54,-127,10,88,25,42,-3,-40,37,-11, 
  /* [70][0][][] */ 6,-43,-7,-94,127,-29,33,7,71,-29,78,-64,8,106,83,109, 
  /* [71][0][][] */ 16,41,6,88,41,-127,-36,99,34,-87,11,18,15,-57,-65,37, 
  /* [72][0][][] */ -127,-76,-22,46,22,37,-28,10,-50,-36,-87,34,41,14,8,93, 
  /* [73][0][][] */ -17,-29,-17,69,7,-17,-5,-12,71,15,-4,15,23,127,-58,-40, 
  /* [74][0][][] */ 68,-34,26,-25,-36,-20,36,-21,-40,-4,-115,22,-127,-12,36,42, 
  /* [75][0][][] */ -14,-15,-20,127,-29,13,6,-20,-61,26,-13,-24,-3,-46,-11,-31, 
  /* [76][0][][] */ -6,-12,0,49,40,16,-23,-127,22,-115,10,26,-26,-17,38,-47, 
  /* [77][0][][] */ 127,-35,36,51,-35,1,-44,-2,48,-13,-43,54,34,18,-53,37, 
  /* [78][0][][] */ -8,0,41,2,3,-16,-58,29,46,-24,-42,-30,24,127,38,-26, 
  /* [79][0][][] */ 2,18,46,17,43,54,-49,-50,14,-47,72,-18,127,-20,-26,-42, 
  /* [80][0][][] */ -119,-90,-84,127,15,36,21,-19,-91,28,-108,2,47,-86,-21,36, 
  /* [81][0][][] */ 74,10,-84,32,127,102,-41,-38,-18,-114,-21,-96,-27,-20,-118,35, 
  /* [82][0][][] */ 126,117,1,45,-127,-25,-71,-17,-71,-2,107,-50,-49,100,2,-36, 
  /* [83][0][][] */ 127,37,10,-19,4,-16,-7,26,33,19,79,-32,-55,-33,-27,-79, 
  /* [84][0][][] */ 5,-48,-61,-23,39,26,-8,-127,-23,-48,24,10,-17,0,-2,-6, 
  /* [85][0][][] */ -33,-12,-40,-54,0,-1,73,89,-8,127,-2,-45,29,73,71,-29, 
  /* [86][0][][] */ 105,-19,12,2,4,-33,1,-15,0,2,-127,4,12,12,-5,21, 
  /* [87][0][][] */ -19,31,21,-27,-14,72,-20,57,-9,-23,22,12,14,-127,10,4, 
  /* [88][0][][] */ 12,-19,-113,-57,56,-20,-51,-127,-5,-32,-21,-41,-34,-6,20,-15, 
  /* [89][0][][] */ 25,-14,9,-127,35,1,-50,94,64,-83,35,1,-15,37,29,46, 
  /* [90][0][][] */ -4,7,-44,52,61,-10,102,-89,58,127,-44,36,20,-11,-13,-12, 
  /* [91][0][][] */ 40,-18,-33,-7,7,-127,-14,-8,1,-7,-40,-10,31,-4,14,23, 
  /* [92][0][][] */ 25,4,127,56,38,17,-6,32,-36,17,-66,21,18,86,-3,-11, 
  /* [93][0][][] */ 127,-38,-35,-12,-35,-49,11,35,-23,32,-115,-15,-1,19,2,43, 
  /* [94][0][][] */ 19,-16,45,73,112,-28,-8,59,10,-17,-5,64,-9,127,-28,-73, 
  /* [95][0][][] */ -105,41,38,36,18,43,18,-3,5,3,127,-7,-19,30,-8,-27, 
};
const TfArray<96, float> quant19_scale = { 96, { 0.00047503036330454051, 0.00094957329565659165, 0.00066619872814044356, 0.0023068226873874664, 0.0010760949226096272, 0.00059310777578502893, 0.00056942208902910352, 0.001958268228918314, 0.0010121207451447845, 0.00033764232648536563, 0.00069125392474234104, 0.001695033279247582, 0.0012905483599752188, 0.00045301407226361334, 0.00110828154720366, 0.00094793539028614759, 0.0007965858094394207, 0.0007369224913418293, 0.00073657510802149773, 0.0017830574652180076, 0.0013911605346947908, 0.00056336179841309786, 0.0010525109246373177, 0.000762276875320822, 0.00081883324310183525, 0.0011105925077572465, 0.0010897918837144971, 0.00066182960290461779, 0.0021863195579499006, 0.0013525685062631965, 0.00081266474444419146, 0.00064235780155286193, 0.00041680282447487116, 0.0019065036904066801, 0.00077019678428769112, 0.0020484572742134333, 0.00034972463618032634, 0.0011255807476118207, 0.0022541519720107317, 0.00068565725814551115, 0.00207182252779603, 0.00050637539243325591, 0.00049041956663131714, 0.00052298256196081638, 0.00099397508893162012, 0.0009008325869217515, 0.0005118536064401269, 0.00086182111408561468, 0.0010541772935539484, 0.00080917874583974481, 0.0015454129315912724, 0.0029258180875331163, 0.00069348508259281516, 0.00085256015881896019, 0.00081887864507734776, 0.00039151535020209849, 0.0012169970432296395, 0.00069538183743134141, 0.00078436837065964937, 0.0014806115068495274, 0.00042594334809109569, 0.00064227654365822673, 0.00099607883021235466, 0.0013913561124354601, 0.00056730059441179037, 0.00082145963096991181, 0.00086131040006875992, 0.0016511303838342428, 0.00044182216515764594, 0.00053179881069809198, 0.00071578903589397669, 0.0014048109296709299, 0.00072207761695608497, 0.0014426185516640544, 0.00082876742817461491, 0.0011280209291726351, 0.00029281168826855719, 0.001075930311344564, 0.00036076089600101113, 0.0019528759876266122, 0.00044533555046655238, 0.00101462472230196, 0.00056964164832606912, 0.001166831236332655, 0.00078389397822320461, 0.0010657587554305792, 0.00084881752263754606, 0.0011185562470927835, 0.00044560656533576548, 0.0011157294502481818, 0.00058855727547779679, 0.0015596305020153522, 0.00053347070934250951, 0.00044653218355961144, 0.0010574362240731716, 0.00084372010314837098, } };
const TfLiteAffineQuantization quant19 = { (TfLiteFloatArray*)&quant19_scale, (TfLiteIntArray*)&g0::quant6_zero, 0 };
const MODEL_SECTION(EI_MODEL_SECTION) ALIGN(16) int32_t tensor_data20[16] = { -36956, 3485, 2113, -8242, -84, -7514, -10995, -43411, 4455, 23568, 33148, -8852, -2091, -22052, 40378, -41970, };
const TfArray<16, float> quant20_scale = { 16, { 0.00081545946886762977, 0.0010268482146784663, 0.0012127505615353584, 0.0011326682288199663, 0.00081769947428256273, 0.00094426935538649559, 0.00093105208361521363, 0.0006027861381880939, 0.00063967454480007291, 0.00053816830040886998, 0.00089437246788293123, 0.00068539567291736603, 0.00099784019403159618, 0.0013211260084062815, 0.00068420491879805923, 0.00065399426966905594, } };
const TfLiteAffineQuantization quant20 = { (TfLiteFloatArray*)&quant20_scale, (TfLiteIntArray*)&g0::quant8_zero, 0 };
const MODEL_SECTION(EI_MODEL_SECTION) ALIGN(16) int8_t tensor_data21[16*1*1*48] = { 
  /* [0][0][][] */ -19,-5,-23,7,22,0,5,107,-55,18,43,-8,20,-15,-12,17,14,-11,-11,-6,68,-5,23,127,-14,87,-6,-14,29,-20,23,-24,-17,52,18,-51,15,47,17,-15,-112,-25,18,47,37,26,-125,-49, 
  /* [1][0][][] */ -33,-12,19,17,-32,7,4,52,-54,-37,3,-45,-21,-20,3,-2,-23,119,-7,18,12,7,-25,-12,26,-45,14,20,-25,-86,-34,18,-22,-2,34,1,-1,-37,-2,17,-15,-32,127,15,11,-4,20,-15, 
  /* [2][0][][] */ -21,-5,-13,-35,0,-67,3,-20,1,10,12,27,14,14,-15,9,-2,-21,-23,-14,-5,-1,0,-127,-13,76,-16,1,-2,-21,-4,-6,-8,56,12,0,25,9,28,3,-39,2,-19,-8,-1,-9,14,7, 
  /* [3][0][][] */ -10,32,1,-29,0,0,1,-2,-19,-2,0,39,-127,7,-7,-4,2,5,-19,-2,-32,7,5,16,-9,-9,2,26,-11,17,2,17,3,2,15,19,-12,24,43,6,11,5,22,-31,8,-4,3,18, 
  /* [4][0][][] */ 35,-31,10,11,19,28,24,-25,-28,2,-12,-18,-2,13,4,14,18,-10,-79,6,-6,12,14,71,2,-25,5,47,9,-71,22,6,14,-37,34,-127,13,37,-2,18,-20,20,11,-24,-13,-19,9,7, 
  /* [5][0][][] */ 27,2,-19,55,-1,-4,7,25,3,-2,43,10,3,54,4,2,-23,20,29,2,13,7,3,-28,4,-47,4,-17,-1,-9,0,5,66,-127,2,27,-17,-14,17,3,-93,58,19,-7,-7,-3,-95,-7, 
  /* [6][0][][] */ 23,-4,7,4,-14,-3,5,-14,-4,8,0,6,-16,9,5,6,1,-10,127,7,9,12,16,-36,7,3,27,-11,-10,-3,-5,9,1,-12,29,-39,-1,-46,71,11,-1,-5,-7,5,-11,0,9,-10, 
  /* [7][0][][] */ -43,-12,-13,37,-7,77,-8,48,0,27,-9,127,75,-6,-11,-6,-7,-27,-5,-16,-32,-9,-19,70,-3,-34,-54,-33,-14,-15,-13,-14,1,2,-20,6,11,-62,99,0,26,25,-62,-57,17,-7,1,1, 
  /* [8][0][][] */ -49,-52,-2,1,-7,4,0,29,-3,-67,3,40,53,7,10,9,-10,60,-28,7,-48,24,-4,-14,3,-1,4,41,-8,113,-14,21,-5,1,-17,-127,-112,66,32,23,18,-2,108,-25,8,28,22,33, 
  /* [9][0][][] */ -27,8,-1,28,17,-30,-3,-4,58,-40,9,53,-59,5,11,1,-8,16,-35,-18,50,12,-14,-20,3,7,51,-27,13,12,9,-6,-1,16,78,-106,-5,-127,-91,9,-32,28,58,6,8,7,-13,-39, 
  /* [10][0][][] */ -19,-11,-37,-127,43,87,10,-15,2,34,22,9,52,-51,-29,20,33,-42,57,-38,32,-22,37,55,-44,-112,7,-35,52,32,48,-48,-33,-87,27,-5,18,-45,4,-34,-33,-62,-13,13,11,12,23,-38, 
  /* [11][0][][] */ -2,56,-7,65,38,-67,-85,-17,3,58,-16,2,-14,58,-5,-77,21,40,4,-8,-59,-101,13,3,12,-37,18,-18,52,-39,22,-90,45,-17,-36,-92,91,21,10,-127,-3,63,98,-76,-8,-53,28,32, 
  /* [12][0][][] */ 122,-3,-13,13,1,20,2,98,17,-11,-60,-24,1,14,-8,-2,-9,7,0,-3,6,3,1,18,1,18,-4,3,-2,13,-8,0,4,-65,-8,10,-15,-20,-29,1,-16,-78,5,-127,-53,-11,80,-5, 
  /* [13][0][][] */ 8,4,1,5,6,-9,1,1,0,8,4,20,-5,4,4,-1,7,0,9,4,11,-10,8,-4,2,2,18,127,10,-5,5,-5,5,-1,-38,19,9,-6,7,-16,-13,-3,1,4,0,-1,-7,-11, 
  /* [14][0][][] */ 62,-26,46,-72,47,30,43,-99,-58,-52,-2,116,-65,-2,60,16,57,29,-55,65,20,13,69,-18,25,53,-31,-112,31,-38,63,52,-4,67,-127,-51,-43,47,83,9,-38,10,50,5,0,-2,17,-26, 
  /* [15][0][][] */ -2,-44,-74,-31,58,22,71,-51,-10,17,-21,-35,75,17,-101,58,55,46,76,-79,-102,-26,56,-10,-95,40,27,50,50,49,51,-49,20,60,99,127,-14,-103,-12,-32,96,57,117,-46,-2,-28,-21,65, 
};
const TfArray<4, int> tensor_dimension21 = { 4, { 16,1,1,48 } };
const TfArray<16, float> quant21_scale = { 16, { 0.034657027572393417, 0.043641049414873123, 0.051541898399591446, 0.048138398677110672, 0.034752227365970612, 0.040131445974111557, 0.039569713175296783, 0.025618411600589752, 0.027186168357729912, 0.022872151806950569, 0.038010828197002411, 0.029129315167665482, 0.042408205568790436, 0.056147854775190353, 0.029078708961606026, 0.02779475599527359, } };
const TfLiteAffineQuantization quant21 = { (TfLiteFloatArray*)&quant21_scale, (TfLiteIntArray*)&g0::quant8_zero, 0 };
const MODEL_SECTION(EI_MODEL_SECTION) ALIGN(16) int32_t tensor_data22[48] = { 558, 42645, -2770, 33777, 6145, 124795, -4593, 37373, 2616, 28814, 24589, 1516, -3730, 31080, 2527, 265, -1908, -2060, 368, -3592, -982, -7143, 1752, -14474, -3139, 31387, 109159, 82041, 4179, 4979, 1869, 3703, 21907, -246, 57546, -204, 55479, 1296, 32469, 2274, -756, 50441, -3104, 493, 49978, 292, 2135, 49074, };
const TfArray<1, int> tensor_dimension22 = { 1, { 48 } };
const TfArray<48, float> quant22_scale = { 48, { 9.6376912551932037e-05, 4.304216054151766e-05, 0.00012826737656723708, 6.2003367929719388e-05, 0.00014795175229664892, 5.6091361329890788e-05, 0.00018241217185277492, 0.00016350827354472131, 7.6063362939748913e-05, 4.718954733107239e-05, 6.1418410041369498e-05, 9.5201481599360704e-05, 5.2890642109559849e-05, 4.7288594942074269e-05, 0.00010754416143754497, 0.00024294025206472725, 0.00015788749442435801, 8.8173612311948091e-05, 0.0001542390527902171, 0.00013160603702999651, 9.8289165180176497e-05, 0.00011019760859198868, 8.6958672909531742e-05, 0.00011043724225601181, 8.6245177953969687e-05, 0.0001528541324660182, 2.1610265321214683e-05, 9.4576302217319608e-05, 0.0001189407121273689, 8.9827452029567212e-05, 9.342564590042457e-05, 0.00011999451817246154, 5.9177222283324227e-05, 0.00016418477753177285, 2.5860932510113344e-05, 5.8978999732062221e-05, 0.00010664749424904585, 9.6016978204715997e-05, 0.00019061053171753883, 8.882117981556803e-05, 0.00013505222159437835, 0.00011752192949643359, 0.00010255325469188392, 0.00011190878285560757, 3.4353797673247755e-05, 0.00012249342398717999, 0.00010844104690477252, 3.0832045013085008e-05, } };
const TfArray<48, int> quant22_zero = { 48, { 0,0,0,0,0,0,0,0,0,0,0,0,0,0,0,0,0,0,0,0,0,0,0,0,0,0,0,0,0,0,0,0,0,0,0,0,0,0,0,0,0,0,0,0,0,0,0,0 } };
const TfLiteAffineQuantization quant22 = { (TfLiteFloatArray*)&quant22_scale, (TfLiteIntArray*)&quant22_zero, 0 };
const MODEL_SECTION(EI_MODEL_SECTION) ALIGN(16) int8_t tensor_data23[1*3*3*48] = { 
  /* [0][0][][] */ 69,-93,97,70,53,-34,106,-63,59,-89,-80,48,52,-42,-72,-89,102,78,49,78,66,-74,-83,50,-32,-41,-64,-64,-67,61,-63,-114,-13,41,68,64,-64,53,-50,-22,50,-74,57,62,-94,11,75,-33, 82,-97,127,85,-77,-68,-58,-84,96,-102,-64,74,80,-108,-96,92,-39,95,82,127,84,-117,53,71,-52,-77,-68,-80,56,79,-30,-127,-85,78,81,84,-81,83,-83,-15,76,-94,82,88,-74,-127,93,-102, 35,-46,70,38,18,-41,-48,-38,42,-32,5,34,29,-77,-56,-1,-55,37,34,69,33,-55,32,26,-29,-45,-42,-23,31,30,87,-89,-85,43,34,33,-29,39,-38,-10,40,-41,34,42,-6,-9,37,-72, 
  /* [0][1][][] */ 92,-112,-42,92,55,-82,127,-89,87,-113,-71,82,84,-109,-13,-127,127,107,74,-38,83,108,-127,72,74,-75,-94,-98,-127,86,-69,-8,-88,70,106,96,-85,78,-80,89,85,-101,87,90,-88,106,93,-91, 127,-127,-64,127,-127,-127,-92,-127,127,-127,-127,127,127,-127,-22,97,-67,127,127,-50,127,127,68,127,127,-127,-127,-127,53,127,-28,16,-127,127,127,127,-127,127,-127,127,127,-127,127,127,-127,-11,127,-127, 62,-77,-33,66,36,-62,-49,-62,56,-42,-59,57,48,-53,-17,10,-63,51,58,-29,57,64,50,64,66,-64,-61,-44,36,54,127,15,-63,69,48,49,-49,60,-59,56,61,-58,54,61,-61,-67,59,-57, 
  /* [0][2][][] */ 44,-51,-46,49,26,-53,65,-43,40,-71,-4,39,55,-72,83,-79,73,50,34,-31,26,-11,-77,30,-24,-44,-49,-49,-75,31,-41,91,-75,36,49,43,-26,37,-42,-86,47,-50,40,45,-22,15,40,-74, 71,-74,-48,79,-57,-63,-72,-67,50,-76,-66,61,74,-47,127,32,-47,59,61,-43,54,-18,42,66,-50,-66,-78,-61,31,61,-24,118,-55,64,58,58,-49,62,-66,-104,69,-68,60,62,-85,49,62,-52, 40,-40,-26,45,28,-20,-17,-34,14,-25,-52,27,31,4,67,24,-36,22,28,-32,28,0,39,41,-25,-29,-48,-24,33,33,60,68,2,33,16,22,-23,30,-29,-55,29,-32,25,29,-62,8,30,-3, 
};
const TfArray<4, int> tensor_dimension23 = { 4, { 1,3,3,48 } };
